tree
version=v4
num_class=1
num_tree_per_iteration=1
label_index=0
max_feature_idx=46
objective=regression
feature_names=vazao_afluente precipitacao nivel_reservatorio dia_semana dia_mes mes trimestre dia_ano semana_ano fim_semana mes_sin mes_cos dia_ano_sin dia_ano_cos geracao_mw_lag_1 geracao_mw_lag_2 geracao_mw_lag_3 geracao_mw_lag_7 geracao_mw_lag_14 geracao_mw_lag_30 geracao_mw_rolling_mean_7 geracao_mw_rolling_std_7 geracao_mw_rolling_min_7 geracao_mw_rolling_max_7 geracao_mw_rolling_mean_14 geracao_mw_rolling_std_14 geracao_mw_rolling_min_14 geracao_mw_rolling_max_14 geracao_mw_rolling_mean_30 geracao_mw_rolling_std_30 geracao_mw_rolling_min_30 geracao_mw_rolling_max_30 vazao_afluente_lag_1 vazao_afluente_lag_3 vazao_afluente_lag_7 vazao_afluente_rolling_mean_7 vazao_afluente_rolling_mean_14 precipitacao_lag_1 precipitacao_lag_3 precipitacao_lag_7 precipitacao_rolling_mean_7 precipitacao_rolling_mean_14 nivel_reservatorio_lag_1 nivel_reservatorio_lag_3 nivel_reservatorio_lag_7 nivel_reservatorio_rolling_mean_7 nivel_reservatorio_rolling_mean_14
feature_infos=[197.64835725727249:408.41290722976186] [20.70551309997732:82.430929695947327] [93.646592373608001:106.22582040208768] [0:6] [1:31] [1:12] [1:4] [1:366] [1:53] [0:1] [-1:1] [-1:1] [-0.99999073973619013:0.99999073973619013] [-0.99996295911626554:1] [1186.0664201703478:2773.2500463645133] [1186.0664201703478:2773.2500463645133] [1186.0664201703478:2773.2500463645133] [1186.0664201703478:2773.2500463645133] [1186.0664201703478:2773.2500463645133] [1186.0664201703478:2773.2500463645133] [1420.1858297656659:2583.2308065944676] [24.314121613437845:206.85044422594783] [1186.0664201703478:2449.2771860504481] [1499.6042658045421:2773.2500463645133] [1441.0499433241785:2551.8768348932294] [54.002657845178973:167.04659681248586] [1186.0664201703478:2445.2666528350219] [1626.1891457537267:2773.2500463645133] [1486.8008571281059:2515.652760661867] [69.616777015253149:160.20528924143053] [1186.0664201703478:2356.1684709914862] [1667.6840983964362:2773.2500463645133] [197.64835725727249:408.41290722976186] [197.64835725727249:408.41290722976186] [197.64835725727249:408.41290722976186] [232.71620591301001:366.42763468188701] [243.59611963908068:360.67788254306635] [20.70551309997732:82.430929695947327] [20.70551309997732:82.430929695947327] [20.088640290992767:82.430929695947327] [37.656708634800637:61.148319182828232] [42.256793297241352:56.599722481873691] [93.646592373608001:106.22582040208768] [93.646592373608001:106.22582040208768] [93.646592373608001:106.22582040208768] [97.621066282821246:102.44962689080612] [98.588698410833913:101.32351262299305]
tree_sizes=2588 2621 2601 2590 2585 2592 2621 2631 2621 2619 2614 2605 2618 2625 2612 2617 2618 2629 2630 2613 2618 2618 2608 2603 2609 2593 2620 2627 2630 2617 2620 2628 2619 2620 2620 2622 2624 2623 2618 2620 2623 2627 2634 2631 2641 2632 2638 2630 2635 2646 2631 2633 2636 2630 2638 2627 2620 2641 2634 2643 2642

Tree=0
num_leaves=31
num_cat=0
split_feature=12 23 12 12 12 7 13 7 20 10 28 7 20 8 36 24 43 14 42 34 36 35 8 44 34 17 31 42 40 32
split_gain=9.45332e+07 7.61147e+06 7.55023e+06 1.57356e+06 1.13711e+06 975087 491617 437197 327306 279101 250061 222585 127437 114841 108874 102144 94137.5 90166.2 87168.3 81717 110835 80897.3 73720.2 65677.2 62702.8 90188 86628.2 68644 60484 50682.8
threshold=1.0000000180025095e-35 2349.6881472288364 -0.55601228778889811 0.76109721063455271 -0.7721494341254892 342.50000000000006 -0.90146829171281539 296.50000000000006 1927.6247590892904 0.68301270189221941 1991.3602699161358 110.50000000000001 1898.0987533877865 45.500000000000007 328.08247206659877 2126.0919608879649 102.24423572349743 2476.3009588883756 100.07234890720724 338.90999967040028 342.59641003747919 278.20917152381816 21.500000000000004 100.43796164395775 249.70999081571799 1623.0193269476101 1777.2758605913284 100.85615644581364 51.926152207354569 327.64217528904641
decision_type=2 2 2 2 2 2 2 2 2 2 2 2 2 2 2 2 2 2 2 2 2 2 2 2 2 2 2 2 2 2
left_child=2 6 4 9 7 8 15 16 21 22 -8 19 -7 -6 -11 -2 24 -13 -12 20 -5 -4 29 -23 26 27 -1 -26 -21 -3
right_child=1 3 5 11 13 12 10 -9 -10 14 18 17 -14 -15 -16 -17 -18 -19 -20 28 -22 23 -24 -25 25 -27 -28 -29 -30 -31
leaf_value=1995.5637722192441 2019.4535117002561 2036.7647005269796 2006.309542323062 2042.8997549771404 2002.4592465442306 2016.3368987069118 2025.4893369973931 2001.5808114292456 2014.9287125769413 2035.7710562167106 2028.9502208735778 2041.628389172776 2021.3815191187125 2006.3246586439157 2040.1296061736368 2023.9818765579623 1998.8911267521216 2037.3566302921606 2033.5625098087623 2043.384757301855 2047.0632702698181 2011.1233489043393 2031.3536688663794 2007.5969674981304 1993.5216171886757 1998.8962523537539 1991.3766613038329 1996.9804024878301 2040.3773497658633 2033.7185467282502
leaf_weight=30 20 22 28 31 46 31 36 40 26 23 21 30 21 33 38 33 20 21 20 82 33 31 20 23 32 21 21 26 21 36
leaf_count=30 20 22 28 31 46 31 36 40 26 23 21 30 21 33 38 33 20 21 20 82 33 31 20 23 32 21 21 26 21 36
internal_value=2021.26 2036.34 2004.15 2040.11 1999.03 2012.75 2025.98 1996.94 2010.04 2035.95 2028.53 2042.76 2018.37 2004.07 2038.49 2022.27 1995.7 2039.87 2031.2 2043.64 2045.05 2008.49 2033.97 2009.62 1995.21 1996.09 1993.84 1995.07 2042.77 2034.87
internal_weight=916 487 429 357 269 160 130 190 108 139 77 218 52 79 61 53 150 51 41 167 64 82 78 54 130 79 51 58 103 58
internal_count=916 487 429 357 269 160 130 190 108 139 77 218 52 79 61 53 150 51 41 167 64 82 78 54 130 79 51 58 103 58
is_linear=0
shrinkage=1


Tree=1
num_leaves=31
num_cat=0
split_feature=12 23 12 12 12 7 13 7 20 28 19 7 36 45 28 20 19 45 19 14 12 34 36 31 7 35 29 29 41 41
split_gain=8.53232e+07 7.11228e+06 6.59266e+06 1.42013e+06 1.02625e+06 874082 467234 394571 252715 232500 215770 200883 177132 106920 106607 106243 105481 99449.7 82004.8 81375 74514.5 73749.6 100028 69971.5 88934.2 65887.7 63963.7 63687.1 62549.3 33095.4
threshold=-0.021515898191483831 2349.6881472288364 -0.55601228778889811 0.76109721063455271 -0.7721494341254892 342.50000000000006 -0.90146829171281539 296.50000000000006 1927.6247590892904 1991.3602699161358 2206.6570388255591 110.50000000000001 328.08247206659877 99.816638414239819 2202.9695741358369 1898.0987533877865 1577.0487403306181 100.67731453100411 1973.0655824784226 2476.3009588883756 -0.413274780713969 338.90999967040028 342.59641003747919 1746.3470607278689 253.50000000000003 280.30114212260798 114.05865271051074 91.535108183949745 49.443033699207973 50.906636930329284
decision_type=2 2 2 2 2 2 2 2 2 2 2 2 2 2 2 2 2 2 2 2 2 2 2 2 2 2 2 2 2 2
left_child=2 6 4 10 7 8 14 17 20 -8 12 21 -3 -12 -2 -7 -6 23 -11 -13 25 22 -5 29 -25 -4 -26 -23 -29 -1
right_child=1 3 5 11 16 15 9 -9 -10 18 13 19 -14 -15 -16 -17 -18 -19 -20 -21 -22 27 -24 24 26 -27 -28 28 -30 -31
leaf_value=-24.202251642400569 -1.6590461469831923 13.583221492251836 -14.899152954101565 20.867592202463459 -13.55120849609375 -4.36712154265373 4.2860980562261632 -18.385404357910158 -5.9877438937624303 11.935179383414132 14.82060770781144 19.659794616699219 18.412611193534655 10.542255907058717 2.8719625234603883 0.3071005642414093 -17.370703947777841 -20.783509790329706 7.461581828594209 15.601623680478051 -10.158975974611336 23.202667163667225 24.82293192545573 -23.466918718492664 -28.635168987771738 -11.048862304687502 -25.015372408353368 21.308333295456908 18.516399427141462 -21.42722396850586
leaf_weight=22 21 37 25 31 28 31 37 40 24 21 23 30 39 40 34 20 51 21 20 21 37 21 33 37 23 20 26 47 35 21
leaf_count=22 21 37 25 31 28 31 37 40 24 21 23 30 39 40 34 20 51 21 20 21 37 21 33 37 23 20 26 47 35 21
internal_value=0.311792 14.5404 -16.0545 18.2172 -20.8064 -7.91263 4.67115 -22.7978 -10.5004 7.15969 14.2679 20.7353 16.0615 12.1042 1.14194 -2.53409 -16.017 -23.9744 9.75294 17.9888 -11.8212 21.5741 22.9071 -24.4938 -25.3173 -13.1879 -26.7145 20.7458 20.1167 -22.847
internal_weight=916 490 426 357 269 157 133 190 106 78 139 218 76 63 55 51 79 150 41 51 82 167 64 129 86 45 49 103 82 43
internal_count=916 490 426 357 269 157 133 190 106 78 139 218 76 63 55 51 79 150 41 51 82 167 64 129 86 45 49 103 82 43
is_linear=0
shrinkage=0.05


Tree=2
num_leaves=31
num_cat=0
split_feature=7 10 23 10 20 7 13 7 20 7 28 7 28 20 27 46 1 34 45 7 34 1 42 15 3 41 2 28 34 18
split_gain=7.66549e+07 7.20706e+06 5.13748e+06 1.12551e+06 1.06327e+06 682269 441411 391201 371100 233740 225313 169777 167744 150855 137427 99828.8 158222 148619 94368.6 93546.7 83640.9 97710.1 75751.9 75539 72003.2 64493.7 62878.7 62651.3 56786.5 52216.8
threshold=176.50000000000003 -0.5 2349.6881472288364 0.68301270189221941 1626.7816520098502 345.50000000000006 0.70860043010605911 296.50000000000006 1927.6247590892904 156.50000000000003 1991.3602699161358 314.50000000000006 2449.396323093431 1911.9817600207614 2029.8807125840628 99.548996927281863 51.992452216330612 338.90999967040028 99.774482259930622 228.50000000000003 253.18283084664918 46.984798329382762 100.07234890720724 2472.2928181070042 3.5000000000000004 48.733733613912896 100.02865826422843 1615.3242001633437 328.58623607913495 1591.4589134408459
decision_type=2 2 2 2 2 2 2 2 2 2 2 2 2 2 2 2 2 2 2 2 2 2 2 2 2 2 2 2 2 2
left_child=2 4 9 12 7 8 15 20 14 10 -1 19 18 -7 -3 16 -5 26 -4 -6 21 -2 -12 -19 -13 -25 -17 29 -8 -22
right_child=1 5 3 6 11 13 28 -9 -10 -11 22 24 -14 -15 -16 17 -18 23 -20 -21 27 -23 -24 25 -26 -27 -28 -29 -30 -31
leaf_value=3.6669674798846246 -26.660461743672688 -8.0985632374882695 13.873420567666329 15.641119194030763 -15.443630373155749 -3.3634050646135885 16.395755882263185 -17.355146416952447 -4.2812262519409785 2.0934745576323532 7.1678953216189427 -11.030474122365316 16.114777595766128 2.2063957688212397 -12.632065794808526 24.577090630164516 21.237997635551125 20.673213045714334 10.288302845425077 -19.560793928666548 -21.44692568392367 -22.624991035461427 11.467554035186769 19.885013351440431 -15.039482371012369 15.869614257812501 21.217638651529949 -19.364820062546503 12.714543255892668 -24.617929534912111
leaf_weight=32 24 32 31 28 37 31 20 43 38 41 21 24 31 20 35 26 23 61 45 22 37 40 20 20 21 20 30 21 22 20
leaf_count=32 24 32 31 28 37 31 20 43 38 41 21 24 31 20 35 26 23 61 45 22 37 40 20 20 21 20 30 21 22 20
internal_value=0.296203 -14.5845 14.3554 17.3063 -19.2595 -5.92372 19.143 -21.5334 -8.22822 5.11449 6.81123 -15.2145 13.015 -1.17917 -10.4668 20.0871 18.1652 20.7114 11.7507 -16.9788 -22.7986 -24.1383 9.26529 19.5659 -12.9013 17.8773 22.7774 -21.6994 14.4675 -22.5596
internal_weight=916 445 471 357 289 156 250 185 105 114 73 104 107 51 67 208 51 157 76 59 142 64 41 101 45 40 56 78 42 57
internal_count=916 445 471 357 289 156 250 185 105 114 73 104 107 51 67 208 51 157 76 59 142 64 41 101 45 40 56 78 42 57
is_linear=0
shrinkage=0.05


Tree=3
num_leaves=31
num_cat=0
split_feature=7 10 23 10 7 7 31 13 22 7 28 10 28 36 28 31 0 2 46 34 7 4 42 15 41 2 37 34 2 24
split_gain=6.9181e+07 6.50437e+06 4.63658e+06 1.01578e+06 931492 622078 545892 398374 214954 210950 203345 155578 151389 115975 102476 98838.8 108583 90361.1 90095.5 134129 80344 77066.8 68366.1 68174 58205.6 56748 51498.2 51249.8 47817.1 43521
threshold=176.50000000000003 -0.5 2349.6881472288364 0.68301270189221941 304.50000000000006 353.50000000000006 1935.4184884415833 0.70860043010605911 1682.5415885636246 156.50000000000003 1991.3602699161358 -0.24999999999999994 2449.396323093431 268.55088012024135 2034.9235403965097 1777.2758605913284 262.93370113216002 100.69239566080959 99.548996927281863 338.90999967040028 336.50000000000006 14.500000000000002 100.07234890720724 2472.2928181070042 48.733733613912896 100.02865826422843 58.743855127656936 328.58623607913495 98.402335606708974 1534.9194949842893
decision_type=2 2 2 2 2 2 2 2 2 2 2 2 2 2 2 2 2 2 2 2 2 2 2 2 2 2 2 2 2 2
left_child=2 4 9 12 6 8 15 18 20 10 -1 14 17 -8 -10 26 -17 28 -5 25 -3 -6 -12 -21 -25 -20 29 -9 -4 -2
right_child=1 5 3 7 21 -7 13 27 11 -11 22 -13 -14 -15 -16 16 -18 -19 19 23 -22 -23 -24 24 -26 -27 -28 -29 -30 -31
leaf_value=3.4836190506815914 -20.705075368014249 -11.698675192319431 10.771825046539307 17.256941178265741 -15.193678591328283 0.97990183177693135 -18.314795605889682 15.575967750549317 -9.7133417089780174 1.9888008020636514 6.8095007033575143 -2.9433505094412604 15.309038765199723 -14.010679329142853 -5.0928329388300577 -24.55235458001858 -20.058594932556154 9.0859151686391524 23.348236083984375 19.639552207071276 -7.4834185075759896 -11.872271785736084 10.894176445007325 18.890762672424316 15.076133193969728 20.156756464640299 -22.387173872727615 12.078815616260876 14.051892112731935 -18.058148352305093
leaf_weight=32 44 26 20 51 31 29 29 20 24 41 21 33 31 34 24 41 20 31 26 61 20 40 20 20 20 30 26 22 25 24
leaf_count=32 44 26 20 51 31 29 29 20 24 41 21 33 31 34 24 41 20 31 26 61 20 40 20 20 20 30 26 22 25 24
internal_value=0.281392 -13.8553 13.6377 16.441 -18.2965 -5.62754 -19.9165 18.1859 -7.13632 4.85877 6.47067 -5.58616 12.3643 -15.9919 -7.40309 -21.5116 -23.079 11.1631 19.0827 19.6758 -9.86595 -13.3225 8.80203 18.5876 16.9834 21.6385 -20.4945 13.7441 12.5941 -19.7709
internal_weight=916 445 471 357 289 156 218 250 127 114 73 81 107 63 48 155 61 76 208 157 46 71 41 101 40 56 94 42 45 68
internal_count=916 445 471 357 289 156 218 250 127 114 73 81 107 63 48 155 61 76 208 157 46 71 41 101 40 56 94 42 45 68
is_linear=0
shrinkage=0.05


Tree=4
num_leaves=31
num_cat=0
split_feature=7 10 23 10 20 7 7 7 24 7 7 28 7 28 36 34 2 45 33 34 31 34 0 28 39 3 33 42 36 40
split_gain=6.24381e+07 6.15578e+06 3.88801e+06 916738 870315 528659 330972 323117 258869 262770 153376 183519 137971 136628 105302 100440 81550.9 81456.8 76168.8 69455.7 85159.1 69039.5 64521.1 105430 103815 64108.8 63998.6 61700.4 58053.7 55081.9
threshold=174.50000000000003 -0.5 2349.6881472288364 0.68301270189221941 1626.7816520098502 353.50000000000006 46.500000000000007 296.50000000000006 1981.4364304988901 340.50000000000006 156.50000000000003 1991.3602699161358 314.50000000000006 2449.396323093431 271.66092760154999 291.31239330431794 100.69239566080959 100.60810572470528 371.00573405709071 246.71041563865882 1766.1700405942972 328.58623607913495 349.0735570602605 2436.9460562975014 40.827760487550037 3.5000000000000004 254.81851565927442 100.07234890720724 342.1650018244664 48.086461101376663
decision_type=2 2 2 2 2 2 2 2 2 2 2 2 2 2 2 2 2 2 2 2 2 2 2 2 2 2 2 2 2 2
left_child=2 4 10 13 7 8 21 17 9 15 11 -1 14 16 -6 -3 -4 19 22 20 -2 -5 24 -24 -8 -14 -21 -13 -26 -25
right_child=1 5 3 6 12 -7 18 -9 -10 -11 -12 27 25 -15 -16 -17 -18 -19 -20 26 -22 -23 23 29 28 -27 -28 -29 -30 -31
leaf_value=3.3094380259513856 -20.479214332217264 -11.486000871658327 11.964380404154461 15.39604256369851 -17.612225935194228 0.930906732329007 19.853416542384934 -15.641654187579489 -3.0421949821083172 -4.2528427749872213 2.1591937707530131 6.4690256482078929 -9.871497519810994 14.54358636179278 -13.372301006317139 -7.3835129356384277 8.6316195334157637 -17.714264569963728 20.84007893437925 -21.938973236083985 -24.982100423177087 11.478175138390583 20.752110631842363 19.165894775390626 14.485934044333067 -13.654354022798083 -19.039995948304522 10.349467649459839 17.280304913404514 15.675684532752406
leaf_weight=32 21 37 45 22 27 29 23 43 38 32 36 21 24 31 32 25 31 21 23 32 21 23 38 20 34 21 47 20 41 26
leaf_count=32 21 37 45 22 27 29 23 43 38 32 36 21 24 31 32 25 31 21 23 32 21 23 38 20 34 21 47 20 41 26
internal_value=0.267323 -13.0168 13.0954 15.619 -17.3817 -5.18179 17.2766 -19.4389 -6.52473 -7.93256 4.83002 6.14714 -13.7221 11.7461 -15.3126 -9.83177 10.605 -20.5888 18.1289 -21.0877 -22.7307 13.3936 17.7863 18.8032 16.9147 -11.6368 -20.2143 8.36192 16.0135 17.1932
internal_weight=916 450 466 357 289 161 250 185 132 94 109 73 104 107 59 62 76 142 205 121 42 45 182 84 98 45 79 41 75 46
internal_count=916 450 466 357 289 161 250 185 132 94 109 73 104 107 59 62 76 142 205 121 42 45 182 84 98 45 79 41 75 46
is_linear=0
shrinkage=0.05


Tree=5
num_leaves=31
num_cat=0
split_feature=7 10 10 23 20 10 7 20 27 7 7 4 18 23 40 25 43 8 32 39 39 10 32 14 46 38 42 36 18 45
split_gain=5.65917e+07 5.53659e+06 3.63578e+06 921072 746560 496048 372404 296102 212758 183069 165999 113202 107113 103079 88985.5 85825.7 83349.8 75490.2 68419.6 79342.1 63959.7 63679.2 63085 62591.2 54737.2 51038.7 50728.2 53517 56725.2 50284.6
threshold=174.50000000000003 -0.5 0.68301270189221941 2365.4757515805277 1604.2188061733052 -0.24999999999999994 46.500000000000007 1927.6247590892904 1999.3211691819731 301.50000000000006 241.50000000000003 16.500000000000004 2496.8945083305175 2309.1919812803176 48.235528811303098 105.4328344977564 102.29993941477706 21.500000000000004 262.93370113216002 49.122367135968737 40.827760487550037 0.93301270189221952 327.38679945349298 2484.4305068025756 99.592604689603448 56.957852358547946 101.69588220498049 343.07569876742195 2467.9001253620131 99.883428885652151
decision_type=2 2 2 2 2 2 2 2 2 2 2 2 2 2 2 2 2 2 2 2 2 2 2 2 2 2 2 2 2 2
left_child=2 4 3 13 9 7 25 15 -7 16 11 29 17 -1 26 -3 18 22 24 -20 -16 23 -5 -22 -2 -4 27 -8 -29 -6
right_child=1 5 6 12 10 8 14 -9 -10 -11 -12 -13 -14 -15 20 -17 -18 -19 19 -21 21 -23 -24 -25 -26 -27 -28 28 -30 -31
leaf_value=2.7444605180910275 -22.975678870791484 -8.2707704210281374 13.72104386994333 12.975295629501344 -11.980794407072523 -5.5144997156583351 15.58698715209961 -4.0888910121387907 -0.66803651474140313 -14.272095870971681 -11.655490500466867 -17.907134951077975 13.737120992487128 6.2314508476564967 18.220808422204222 -12.665173645019532 -16.370619201660158 7.1376230192184451 -20.559103902180993 -16.641333171299525 16.03957619386561 17.438016533851624 9.5213805809999137 12.704578399658203 -19.967281369809754 10.52004207611084 20.567713346935456 20.294309326171877 16.769322676885697 -15.483912773132325
leaf_weight=67 21 20 33 20 21 39 20 27 54 20 57 26 22 31 33 25 20 20 24 28 34 32 39 24 54 20 21 25 21 20
leaf_count=67 21 20 33 20 21 39 20 27 54 20 57 26 22 31 33 25 20 20 24 28 34 32 39 24 54 20 21 25 21 20
internal_value=0.0664833 -12.4293 12.4 7.30082 -16.5779 -5.11263 16.2583 -8.2284 -2.70042 -18.7602 -13.6389 -15.3263 10.6516 3.84749 17.2035 -10.7121 -19.3708 9.79231 -19.8433 -18.4495 16.3379 15.6475 10.6922 14.6596 -20.8096 12.5131 18.4273 17.7463 18.6851 -13.6896
internal_weight=918 456 462 199 291 165 263 72 93 167 124 67 101 98 210 45 147 79 127 52 123 90 59 58 75 53 87 66 46 41
internal_count=918 456 462 199 291 165 263 72 93 167 124 67 101 98 210 45 147 79 127 52 123 90 59 58 75 53 87 66 46 41
is_linear=0
shrinkage=0.05


Tree=6
num_leaves=31
num_cat=0
split_feature=12 12 12 12 12 23 7 7 4 13 19 12 28 33 4 19 28 25 7 33 23 35 2 24 22 40 46 0 44 18
split_gain=5.11664e+07 4.33387e+06 4.09967e+06 721525 682285 493030 444089 175274 167619 122590 116574 106907 132105 94360.2 104354 90038.1 89070.9 88753.2 75342.3 74925.1 74352.4 68338.4 63261.1 54959.5 54472.5 52653.5 46596 44843 65665.3 52427.9
threshold=1.0000000180025095e-35 0.52707282776374187 -0.52707282776374165 0.84753307444029569 -0.81403855522663837 2310.7289922818823 344.50000000000006 56.500000000000007 13.500000000000002 -0.98208922706762081 2215.542994550236 -0.93535928755917819 1563.4211453302789 248.29499346088181 8.5000000000000018 1526.1669945424517 2220.4278073948649 108.89814012431388 110.50000000000001 335.66927558475794 2037.2756363679159 331.75411534184019 98.287481641057056 2352.4291674881906 1585.5165109379268 48.520938864393969 99.979309661956492 352.51547786989278 100.77058472585396 2435.1105220780341
decision_type=2 2 2 2 2 2 2 2 2 2 2 2 2 2 2 2 2 2 2 2 2 2 2 2 2 2 2 2 2 2
left_child=2 5 4 7 11 9 8 16 20 -2 -7 12 22 -13 -15 -6 -3 -10 19 -5 -4 -18 -1 -9 25 -17 -11 28 -21 -29
right_child=1 3 6 18 15 10 -8 23 17 26 -12 13 -14 14 -16 24 21 -19 -20 27 -22 -23 -24 -25 -26 -27 -28 29 -30 -31
leaf_value=-15.652103405907042 -1.0360908426344395 11.499802903568044 -7.448774028646536 15.200447093418667 -10.367621859797726 9.6931491589546201 -1.8651043331744721 7.9592930311248411 -7.8441243842796045 1.8495392540522986 5.4064106916559158 -13.512246894836426 -22.383124472878198 -15.100972747802736 -19.684116109212241 -14.612063126336961 12.978346164409931 -12.122381175648083 14.584110596600702 18.194605854579383 -3.7278969655036924 16.603534493079554 -18.84066983540853 11.046319663006328 -15.349510389758695 -11.347699648539226 4.4683725006652599 20.822405450994321 14.822571060874246 17.285288848876956
leaf_weight=21 24 34 29 35 27 35 49 21 27 35 29 20 22 23 27 21 26 22 34 42 25 26 60 46 31 30 33 22 22 20
leaf_count=21 24 34 29 35 27 35 49 21 27 35 29 20 22 23 27 21 26 22 34 42 25 26 60 46 31 30 33 22 22 20
internal_value=0.0631591 11.2411 -12.4026 14.5041 -15.9704 4.38058 -5.78346 11.9961 -7.64753 2.03613 7.75072 -17.9226 -18.9472 -16.4148 -17.5759 -12.872 13.4898 -9.76497 16.6968 17.2063 -5.72615 14.7909 -18.014 10.0787 -13.6966 -12.6918 3.12044 17.8686 17.0355 19.1381
internal_weight=918 484 434 328 282 156 152 153 103 92 64 173 103 70 50 109 86 49 175 141 54 52 81 67 82 51 68 106 64 42
internal_count=918 484 434 328 282 156 152 153 103 92 64 173 103 70 50 109 86 49 175 141 54 52 81 67 82 51 68 106 64 42
is_linear=0
shrinkage=0.05


Tree=7
num_leaves=31
num_cat=0
split_feature=12 12 12 12 12 23 13 13 22 30 19 13 12 28 33 4 19 28 13 33 14 2 24 46 22 44 0 38 25 33
split_gain=4.61777e+07 3.91132e+06 3.69995e+06 651176 615763 445893 400790 158185 151622 130796 113300 105013 96483.7 119225 85160.1 94179.4 81259.4 80386.5 67996.4 67619.9 57283.3 57093.1 49601 49528.5 49161.4 42443.4 48470 39363.7 37685.9 37411.8
threshold=1.0000000180025095e-35 0.52707282776374187 -0.52707282776374165 0.84753307444029569 -0.81403855522663837 2309.1919812803176 0.93834263341299773 0.56312986467441573 1743.2542422095273 1517.0712186645887 2215.542994550236 -0.98208922706762081 -0.93535928755917819 1563.4211453302789 248.29499346088181 8.5000000000000018 1526.1669945424517 2220.4278073948649 -0.32533003375364639 335.66927558475794 2354.4850959513083 98.287481641057056 2352.4291674881906 99.979309661956492 1585.5165109379268 99.301964074811281 352.51547786989278 53.717048374901772 88.882848262332047 293.76765350933925
decision_type=2 2 2 2 2 2 2 2 2 2 2 2 2 2 2 2 2 2 2 2 2 2 2 2 2 2 2 2 2 2
left_child=2 5 4 7 12 11 8 22 9 -4 -7 -2 13 21 -14 -16 -6 -9 -5 -20 -19 -1 -3 -13 -18 -21 28 -23 -27 -10
right_child=1 3 6 18 16 10 -8 17 29 -11 -12 23 14 -15 15 -17 24 20 19 25 -22 27 -24 -25 -26 26 -28 -29 -30 -31
leaf_value=-14.869498334612167 -0.98428629208356144 7.5613284088316419 -5.4971878361701974 13.854905072380516 -9.8492407692803283 9.2084917354583737 -1.7718491156186378 10.924812563727883 -6.4537713909149179 -10.409921428135464 5.0921338200336326 1.4842347284778954 -12.836634502410888 -21.263968172940341 -14.345924095485522 -18.699910283971715 -12.057256803325579 16.15053800582886 14.440424662998746 18.313540047093444 12.739428043365479 -19.018562586167281 10.494003793467646 4.2449538817911439 -14.582034990864415 16.697258682250975 17.872202979193794 -16.434117214496322 13.664576012747629 -3.4321405297233945
leaf_weight=21 24 21 20 34 27 35 49 34 20 42 32 32 20 22 23 27 51 20 35 38 32 34 46 33 31 20 27 26 21 21
leaf_count=21 24 21 20 34 27 35 49 34 20 42 32 32 20 22 23 27 51 20 35 38 32 34 46 33 31 20 27 26 21 21
internal_value=0.0600012 10.6791 -11.7825 13.7789 -15.1719 4.16155 -5.49429 11.3963 -7.26515 -8.82517 7.24247 1.8422 -17.0264 -17.9999 -15.5941 -16.6971 -12.2284 12.8153 15.862 16.346 14.0514 -17.1133 9.57481 2.88583 -13.0117 16.9751 16.2272 -17.8986 15.1439 -4.90611
internal_weight=918 484 434 328 282 156 152 153 103 62 67 89 173 103 70 50 109 86 175 141 52 81 67 65 82 106 68 60 41 41
internal_count=918 484 434 328 282 156 152 153 103 62 67 89 173 103 70 50 109 86 175 141 52 81 67 65 82 106 68 60 41 41
is_linear=0
shrinkage=0.05


Tree=8
num_leaves=31
num_cat=0
split_feature=12 12 12 12 12 7 12 20 19 7 27 4 34 28 19 19 28 7 45 20 7 35 33 1 0 18 44 4 22 40
split_gain=4.16754e+07 3.52996e+06 3.3392e+06 587687 555726 361713 313216 158973 143382 142762 124604 97810.2 87471.1 89645.4 73336.6 73322 72548.8 67950.6 85916.5 66224.1 61366.8 61052.5 61044.2 51724.4 50928.2 49490.8 46104.6 56953.9 44368.2 47519.8
threshold=1.0000000180025095e-35 0.52707282776374187 -0.52707282776374165 0.84753307444029569 -0.81403855522663837 344.50000000000006 0.34964421742355262 1927.6247590892904 2187.3449029314702 56.500000000000007 2029.8807125840628 13.500000000000002 252.67374216413333 1551.8429092590538 1526.1669945424517 2281.0734638805957 2220.4278073948649 286.50000000000006 100.29527742494223 2354.6136436831298 110.50000000000001 319.47074528555424 333.42276992454896 52.232531300458241 287.63387571208705 2472.4532222287257 101.25315200060002 15.500000000000002 1585.5165109379268 48.520938864393969
decision_type=2 2 2 2 2 2 2 2 2 2 2 2 2 2 2 2 2 2 2 2 2 2 2 2 2 2 2 2 2 2
left_child=2 6 4 9 12 7 8 10 11 16 -4 -2 13 23 -6 -8 -3 18 -14 -18 22 -10 -5 -1 -12 -11 27 -24 29 -16
right_child=1 3 5 20 14 -7 15 -9 21 25 24 -13 17 -15 28 -17 19 -19 -20 -21 -22 -23 26 -25 -26 -27 -28 -29 -30 -31
leaf_value=-18.004119453430175 2.4472053158096969 10.378572060080137 -5.9520225537789839 13.568921341434603 -9.3567787029125071 -1.6832567079943055 8.6805538177490238 -3.521471648720595 -1.0752208674776145 8.1458995331658262 -11.761905364990234 6.9045253539085394 -17.248613309860229 -19.712249919346402 -13.278597114199684 4.9727412484586244 15.276125558217368 -13.124471173967635 -13.584672896067302 11.69685070855277 13.162159975837259 2.4647358587809975 15.699753135681153 -14.592669021606447 -8.193704533576966 11.039590194008568 14.446850432119062 18.484984351848734 -13.852933182254915 -10.177451807657878
leaf_weight=20 32 34 37 31 27 49 30 26 29 45 20 20 48 28 21 24 24 28 24 28 34 21 50 25 20 22 31 29 31 30
leaf_count=20 32 34 37 31 27 49 30 26 29 45 20 20 48 28 21 24 24 28 24 28 34 21 50 25 20 22 31 29 31 30
internal_value=0.0570011 10.1451 -11.1934 13.0899 -14.4133 -5.21957 3.95347 -6.9019 2.32332 10.8264 -8.04334 4.16156 -16.1751 -17.491 -11.617 7.03264 12.1745 -15.2145 -16.0273 13.3488 15.0689 0.411561 15.5287 -16.1089 -9.9778 9.09607 16.081 16.7222 -12.3612 -11.4544
internal_weight=918 484 434 328 282 152 156 103 102 153 77 52 173 73 109 54 86 100 72 52 175 50 141 45 40 67 110 79 82 51
internal_count=918 484 434 328 282 152 156 103 102 153 77 52 173 73 109 54 86 100 72 52 175 50 141 45 40 67 110 79 82 51
is_linear=0
shrinkage=0.05


Tree=9
num_leaves=31
num_cat=0
split_feature=12 23 12 12 12 7 20 10 19 27 28 12 4 20 4 28 29 19 7 33 2 18 0 8 22 40 12 34 21 0
split_gain=3.7612e+07 3.20741e+06 3.01363e+06 732248 501542 326446 143473 134462 123343 112455 108847 91182.9 84744.3 112412 74530.1 73305.8 68995.4 66186.3 55383.5 55148.8 54329.3 48830.3 45962.7 42919.6 40042.3 43188.3 37360.9 53846.2 43214.1 37663.3
threshold=1.0000000180025095e-35 2349.6881472288364 -0.52707282776374165 0.84753307444029569 -0.81403855522663837 344.50000000000006 1927.6247590892904 0.68301270189221941 2187.3449029314702 2029.8807125840628 1997.3658271236206 0.18399664778440331 9.5000000000000018 1545.2024796144271 9.5000000000000018 1563.4211453302789 110.01368156036486 1526.1669945424517 110.50000000000001 335.66927558475794 99.343837452272979 2480.7890280104002 287.63387571208705 21.500000000000004 1585.5165109379268 48.967140356579669 0.99466160899732492 332.55897338536698 106.51616119851637 336.70819593654284
decision_type=2 2 2 2 2 2 2 2 2 2 2 2 2 2 2 2 2 2 2 2 2 2 2 2 2 2 2 2 2 2
left_child=2 8 4 7 12 6 9 21 10 -4 -2 -10 13 -1 -9 20 -16 -6 19 -5 -14 23 -11 -3 25 -19 27 -21 29 -29
right_child=1 3 5 18 17 -7 -8 14 11 22 -12 -13 15 -15 16 -17 -18 24 -20 26 -22 -23 -24 -25 -26 -27 -28 28 -30 -31
leaf_value=-15.885766470021217 2.5472110918590003 8.6244088693901357 -5.6544215788712373 13.031360866001675 -8.888939843354402 -1.599093839100429 -3.3453980450446794 9.1513364914924864 -1.2758238756656648 -11.173809928894045 7.0354012841528117 2.5924247674452956 -13.487278216225761 -11.358125158456657 10.235363207923042 -17.930082712675397 13.578985277811686 -12.487074147100035 12.50405201631434 18.045886116027834 -16.219092838580792 10.676088371276856 -7.7840193045139321 5.9129563009738924 -13.160286564980783 -9.5629531315394818 13.373914031982423 14.530597114562989 13.445951477050782 17.562366885230656
leaf_weight=29 35 54 37 35 27 49 26 31 25 20 22 39 28 26 27 38 36 23 34 20 52 20 20 20 31 28 20 20 25 21
leaf_count=29 35 54 37 35 27 49 26 31 25 20 22 39 28 26 27 38 36 23 34 20 52 20 20 20 31 28 20 20 25 21
internal_value=0.0541511 9.63787 -10.6337 11.9879 -13.6926 -4.95859 -6.5568 9.82122 2.58794 -7.64117 4.2795 1.08139 -15.3663 -13.7454 11.1584 -16.1219 12.146 -11.0361 14.3154 14.7522 -15.263 8.48403 -9.47891 7.89158 -11.7431 -10.8817 15.3204 15.7731 15.0844 16.0835
internal_weight=918 484 434 363 282 152 103 188 121 77 57 64 173 55 94 118 63 109 175 141 80 94 40 74 82 51 106 86 66 41
internal_count=918 484 434 363 282 152 103 188 121 77 57 64 173 55 94 118 63 109 175 141 80 94 40 74 82 51 106 86 66 41
is_linear=0
shrinkage=0.05


Tree=10
num_leaves=31
num_cat=0
split_feature=7 12 12 12 7 12 15 29 7 36 7 37 37 42 0 40 2 16 21 0 14 44 34 31 46 41 27 19 28 37
split_gain=3.42944e+07 3.06964e+06 2.37419e+06 601192 475001 296033 229708 229427 117825 114339 113770 104630 96200.5 84412 82923.3 82126.8 71725.3 65461.6 61916.5 59218.7 56443 53186.4 84797.6 52018.8 51082.4 46367.3 39491 34722.5 33081.9 31422.1
threshold=174.50000000000003 -0.47494667389482609 0.50495637864894027 0.84753307444029569 304.50000000000006 -0.17552986495351994 1650.6512952138762 126.22445377682362 132.50000000000003 294.88432199851042 340.50000000000006 50.656698722630289 52.273789577855474 100.77375413448107 354.6300926921424 50.26048045392001 98.864155634293169 1517.0749289999928 114.31104073621434 257.33737326555485 2588.3678139469116 99.147455430761127 351.81174199999401 1928.6431645758655 99.855876176018796 49.16184215061994 2071.3711480964453 1891.9739011086574 2227.5750630612624 52.242255744130432
decision_type=2 2 2 2 2 2 2 2 2 2 2 2 2 2 2 2 2 2 2 2 2 2 2 2 2 2 2 2 2 2
left_child=2 4 7 8 6 10 12 11 14 -7 26 -1 18 -13 16 -14 -4 -17 25 -6 21 22 -5 -8 -21 -2 -3 -25 -18 -10
right_child=1 5 3 20 19 9 23 -9 29 -11 -12 13 15 -15 -16 17 28 -19 -20 24 -22 -23 -24 27 -26 -27 -28 -29 -30 -31
leaf_value=1.4660988765103478 -14.664212732729704 -6.0472289671642443 8.3383801473511596 17.608610482051457 -11.211737113163389 1.2441481648771853 -13.199646891718325 8.441935271024704 8.9474670688311271 -3.0864514671053205 -3.4090448249788845 2.7670429177284244 -18.326587595258442 7.1251042723655704 13.569080025809152 -16.901004714965818 9.6891204253486976 -12.94859750921076 -15.986426370794124 -10.028756655179539 11.872611336086109 13.834252425163024 13.436669740222749 -8.7377720546722415 -6.9766377909430153 -11.819850379542302 -8.7898722512381422 -11.648774083455404 12.116713979509143 6.2990991864885606
leaf_weight=56 23 35 36 29 29 27 23 23 24 35 34 25 28 20 21 20 23 22 22 26 23 93 21 20 29 38 21 21 36 21
leaf_count=56 23 35 36 29 29 27 23 23 24 35 34 25 28 20 21 20 23 22 22 26 23 93 21 20 29 38 21 21 36 21
internal_value=0.0660327 -9.65106 9.82622 12.0602 -12.5759 -3.85909 -13.8117 3.93503 9.88326 -1.20055 -5.69053 2.90871 -14.8638 4.70396 10.7257 -16.2291 10.0972 -14.8307 -13.7124 -9.38346 14.1715 14.5413 15.8564 -11.2964 -8.41946 -12.8923 -7.07572 -10.2288 11.1704 7.71156
internal_weight=904 453 451 327 301 152 217 124 161 62 90 101 153 45 116 70 95 42 83 84 166 143 50 64 55 61 56 41 59 45
internal_count=904 453 451 327 301 152 217 124 161 62 90 101 153 45 116 70 95 42 83 84 166 143 50 64 55 61 56 41 59 45
is_linear=0
shrinkage=0.05


Tree=11
num_leaves=31
num_cat=0
split_feature=12 12 12 12 8 13 7 8 28 29 7 37 0 45 42 33 28 27 44 32 0 17 17 38 37 18 19 0 28 37
split_gain=3.09749e+07 2.7176e+06 2.22069e+06 542576 358092 291475 237140 173854 130522 125104 106337 81047 74838.3 68630 79383.1 66707.7 64008.3 62225.9 58676.1 61448 53733.8 47512.1 55517.8 54744.2 47934.2 46873.9 67395 46567.8 40984.3 38394.9
threshold=1.0000000180025095e-35 0.50495637864894027 -0.52707282776374165 0.84753307444029569 43.500000000000007 -0.93533330245768853 340.50000000000006 33.500000000000007 2009.7664462416235 126.22445377682362 132.50000000000003 52.273789577855474 354.6300926921424 99.848282960203491 100.43049191290537 263.34581864641524 1770.8555198123909 2037.2756363679159 101.59130231001596 262.93370113216002 342.22931605864881 2472.4532222287257 2591.4867199837558 54.477541326586135 46.833378705316363 2356.4783934935363 2153.1536058875186 341.36347983601183 2209.9109216938614 57.21307343151463
decision_type=2 2 2 2 2 2 2 2 2 2 2 2 2 2 2 2 2 2 2 2 2 2 2 2 2 2 2 2 2 2
left_child=2 5 4 10 7 28 8 -1 17 13 12 18 20 -7 -15 29 -8 -4 19 -9 25 23 27 24 -5 26 -3 -23 -2 -13
right_child=1 3 6 21 -6 9 16 11 -10 -11 -12 15 -14 14 -16 -17 -18 -19 -20 -21 -22 22 -24 -25 -26 -27 -28 -29 -30 -31
leaf_value=-10.259156535221981 -1.4909787489020307 9.5954921688352321 -6.2715142488479616 13.307609424591064 -9.2727227632101474 1.6667415618896486 -3.542777183138091 -14.932434626323422 -3.5813926927971118 8.0198385445967961 7.3259839100307893 -15.607401075817291 12.890626071748279 3.0270333977846002 7.1079410292885532 -17.126680278778078 -0.052004395782326664 -9.5353764907173488 -10.587461776733399 -12.03381840098988 7.602524223327638 13.438251617431641 14.793703606015161 12.640071034431458 16.39246680315803 8.3918225461786449 13.39572587966919 10.59556303585277 1.4336155399084092 -12.707348587036133
leaf_weight=39 23 28 40 20 77 25 29 41 33 23 45 21 21 26 22 28 24 23 20 33 25 25 21 32 34 22 20 34 25 25
leaf_count=39 23 28 40 20 77 25 29 41 33 23 45 21 21 26 22 28 24 23 20 33 25 25 21 32 34 22 20 34 25 25
internal_value=0.0627311 8.93683 -9.59015 11.4572 -12.1838 3.21354 -4.64664 -13.2666 -6.12875 4.80419 9.38909 -13.9648 10.1894 3.79104 4.89745 -15.2025 -1.96205 -7.46308 -12.9904 -13.6398 9.59233 13.463 12.5859 14.2788 15.2499 10.303 11.1789 11.8001 0.0322474 -14.0313
internal_weight=904 471 433 327 284 144 149 207 96 96 161 168 116 73 48 74 53 63 94 74 95 166 80 86 54 70 48 59 48 46
internal_count=904 471 433 327 284 144 149 207 96 96 161 168 116 73 48 74 53 63 94 74 95 166 80 86 54 70 48 59 48 46
is_linear=0
shrinkage=0.05


Tree=12
num_leaves=31
num_cat=0
split_feature=12 12 12 12 7 13 7 15 4 36 7 46 37 2 25 21 37 33 15 14 44 36 24 37 1 2 0 3 0 16
split_gain=2.79548e+07 2.45264e+06 2.00417e+06 489674 323294 263056 214019 178648 113990 95977.4 95969.2 81057.3 75923.8 68204 79816.5 64722.8 64284.2 61415.8 59390.1 49492.9 47062 51765.2 43534.2 43501 40436.1 38637.6 37337.6 44703.2 34161.3 33090.6
threshold=1.0000000180025095e-35 0.50495637864894027 -0.52707282776374165 0.84753307444029569 304.50000000000006 -0.93533330245768853 340.50000000000006 1650.6512952138762 17.500000000000004 291.37198147413523 132.50000000000003 99.910194587010878 52.273789577855474 99.384739671858156 101.56315837184361 114.31104073621434 56.396015518589387 263.34581864641524 1914.1009301171191 2588.3678139469116 99.147455430761127 346.50483807822343 2270.6335068286394 48.432935534014661 51.737705826724813 100.99923884925165 257.33737326555485 3.5000000000000004 313.98386473922028 1580.6782586710654
decision_type=2 2 2 2 2 2 2 2 2 2 2 2 2 2 2 2 2 2 2 2 2 2 2 2 2 2 2 2 2 2
left_child=2 5 4 10 7 28 9 12 11 23 13 -7 15 14 -3 29 -14 -18 -8 20 21 -5 -15 -4 -9 -24 -6 -28 -2 -1
right_child=1 3 6 19 26 8 18 24 -10 -11 -12 -13 16 22 -16 -17 17 -19 -20 -21 -22 -23 25 -25 -26 -27 27 -29 -30 -31
leaf_value=-12.491239528166943 -1.1457354333665637 10.275819944093627 -8.290945827960968 15.981932815551758 -10.140040574754988 1.0132274944335222 -3.1669554239759847 -9.1853834549585986 6.8905977747019609 -3.7351834855760853 6.9596846485137949 4.7248550835408665 -16.920853285355999 8.805933956872849 6.1980213363965362 -14.834918944040934 -12.145374434334892 -15.773118743896484 0.28601579934358601 10.637073234889819 12.470967577862483 12.764319213867189 12.947646745045981 -5.6172583875984987 -11.869279347295347 10.079808135654616 -6.4049813652038585 -9.5764517784118652 1.5431113983548823 -10.066063152660023
leaf_weight=39 27 24 32 25 28 24 33 36 34 35 45 38 22 21 24 21 28 20 20 23 93 25 24 29 23 23 25 20 21 22
leaf_count=39 27 24 32 25 28 24 33 36 34 35 45 38 22 21 24 21 28 20 20 23 93 25 24 29 23 23 25 20 21 22
internal_value=0.0595945 8.48999 -9.11065 10.8843 -11.5746 3.05287 -4.4143 -12.5668 4.56398 -5.82231 8.91964 3.2881 -13.4733 9.67996 8.23692 -12.4408 -14.6827 -13.6569 -1.86395 12.7898 13.1361 14.3731 10.6986 -7.01985 -10.2316 11.5442 -8.7065 -7.81452 0.0306351 -11.6166
internal_weight=904 471 433 327 284 144 149 211 96 96 161 62 152 116 48 82 70 48 53 166 143 50 68 61 59 47 73 45 48 61
internal_count=904 471 433 327 284 144 149 211 96 96 161 62 152 116 48 82 70 48 53 166 143 50 68 61 59 47 73 45 48 61
is_linear=0
shrinkage=0.05


Tree=13
num_leaves=31
num_cat=0
split_feature=12 12 12 12 8 29 7 15 38 37 7 19 36 18 29 43 28 18 14 34 8 1 34 37 29 39 38 7 37 35
split_gain=2.52292e+07 2.21351e+06 1.80877e+06 441931 293311 214990 193779 167966 89214.8 91240.5 86612.2 86518.3 103523 98560.5 82705.6 71911.5 56248.7 68512.9 62389.6 54928.4 53756.2 47153.2 46828 77723.9 51082.3 46652.5 44656.7 33276.8 45377.4 31456.9
threshold=1.0000000180025095e-35 0.50495637864894027 -0.52707282776374165 0.84753307444029569 43.500000000000007 126.22445377682362 353.50000000000006 1650.6512952138762 58.975228879844686 52.273789577855474 132.50000000000003 2187.3449029314702 324.05940810999704 2027.0365868815122 114.05865271051074 100.25930747486937 2220.4278073948649 2413.0721594684101 2386.8312399813822 329.80249649657509 39.500000000000007 54.568549025482447 338.90999967040028 52.583185645382855 91.535108183949745 55.945042057145422 54.421546410733114 104.50000000000001 50.796996732173852 280.30114212260798
decision_type=2 2 2 2 2 2 2 2 2 2 2 2 2 2 2 2 2 2 2 2 2 2 2 2 2 2 2 2 2 2
left_child=2 5 4 10 7 11 15 8 9 14 16 13 -13 -2 -1 21 19 18 -18 -3 -11 25 23 -5 -24 -4 -9 28 -26 -17
right_child=1 3 6 22 -6 -7 -8 26 -10 20 -12 12 -14 -15 -16 29 17 -19 -20 -21 -22 -23 24 -25 27 -27 -28 -29 -30 -31
leaf_value=-14.350445286980992 1.8735426989623478 9.5311497688293461 -5.8623613694134882 14.651793093430369 -8.3612436049944403 7.3314798303272415 0.13872770992192357 -8.6974674952657605 -10.786502818057413 -16.861766510009769 6.6117004280620151 -1.1480149352189268 2.8432730184867978 6.2063735130287361 -10.739720152446203 -7.8671132314772834 12.716638506375828 7.6427481846375898 9.3152409826006206 5.825465409755707 -13.430269568307061 -1.9429787408737909 13.558855056762695 11.103996647321262 10.37048511505127 -2.8190266275405884 -11.570481200445267 9.118828544616699 13.213641971090565 -5.3607769227796993
leaf_weight=29 35 20 34 38 77 23 22 38 38 25 45 33 32 21 35 21 26 22 28 20 21 21 23 26 36 20 21 20 23 31
leaf_count=29 35 20 34 38 77 23 22 38 38 25 45 33 32 21 35 21 26 22 28 20 21 21 23 26 36 20 21 20 23 31
internal_value=0.0566148 8.06549 -8.65511 10.3401 -10.9958 2.90022 -4.19359 -11.9759 -12.8751 -13.5967 8.47366 2.05792 0.816927 3.49835 -12.3758 -4.94407 9.19597 9.99473 10.953 7.67831 -15.2952 -3.95338 12.1503 13.2105 11.4851 -4.7352 -9.72007 10.8814 11.4788 -6.37295
internal_weight=904 471 433 327 284 144 149 207 148 110 161 121 65 56 64 127 116 76 54 40 46 75 166 64 102 54 59 79 59 52
internal_count=904 471 433 327 284 144 149 207 148 110 161 121 65 56 64 127 116 76 54 40 46 75 166 64 102 54 59 79 59 52
is_linear=0
shrinkage=0.05


Tree=14
num_leaves=31
num_cat=0
split_feature=7 12 12 12 12 27 12 0 8 37 30 18 4 34 43 14 18 40 14 46 34 37 28 27 46 22 34 34 40 36
split_gain=2.2777e+07 2.32061e+06 1.35781e+06 320768 249501 244286 164813 135016 128620 120335 98508.6 71378.6 71069.2 65949.4 62936.1 61163 61947.9 56520.1 75647.9 52587.3 40735.5 53493.3 47210.7 40334 37848.2 37723.6 37566.1 36609 35899.9 34525.9
threshold=168.50000000000003 -0.47494667389482609 0.67760851415498091 -0.7721494341254892 -0.17552986495351994 2413.7725456823473 0.87379901192678255 354.17868148607744 43.500000000000007 53.351606901355638 1560.664819279589 2319.1914823471793 18.500000000000004 269.44287426815674 102.24423572349743 1443.9312951830013 1631.161157896179 50.63790905421272 2308.5297043522014 99.851048975626853 338.90999967040028 53.211894686359621 2484.2137721609138 1859.9887732322511 99.907567857252076 2280.2957096989744 329.80249649657509 312.85775657433686 52.207390903602068 345.40654227385784
decision_type=2 2 2 2 2 2 2 2 2 2 2 2 2 2 2 2 2 2 2 2 2 2 2 2 2 2 2 2 2 2
left_child=2 3 5 8 10 9 7 11 14 -1 -3 -4 -6 19 15 -2 28 18 -7 -5 21 -8 25 -21 -12 -22 -19 -14 -17 -27
right_child=1 4 6 13 12 17 20 -9 -10 -11 24 -13 27 -15 -16 16 -18 26 -20 23 22 -23 -24 -25 -26 29 -28 -29 -30 -31
leaf_value=1.7409471287146996 -14.46681036597916 -2.1884384151015963 10.260042758941651 -9.0499827098846435 -2.7392875710768361 3.1167155706882479 13.956527214050295 12.430197276239809 -8.3943430341523264 5.572260919958353 -4.0958351720463151 7.0089613886979905 1.6969248755620077 -9.4577627100843067 -9.3756471157073982 -11.817819129096137 -13.55703761384294 8.8812124162912376 7.4655069732666028 -4.3221730160713197 9.8476256561279314 10.852427888953168 9.0718121901802391 -7.4976276326179505 -6.6777805244922632 14.026161422729494 6.3225076038103838 -1.1099073637099495 -9.5564162841209992 11.344205811818441
leaf_weight=57 28 28 25 20 28 20 35 23 29 32 22 52 26 47 20 54 37 32 20 20 20 23 23 20 40 20 26 21 26 30
leaf_count=57 28 28 25 20 28 20 35 23 29 32 22 52 26 47 20 54 37 32 20 20 20 23 23 20 40 20 26 21 26 30
internal_value=0.0537841 -7.64067 8.24012 -10.2531 -2.87505 5.01484 10.643 9.06862 -11.4653 3.1185 -4.64995 8.06451 -0.745174 -8.05524 -12.005 -12.3677 -11.8653 6.73702 5.29111 -6.95659 11.6857 12.7256 11.0371 -5.9099 -5.76161 11.6829 7.73421 0.442808 -11.0829 12.417
internal_weight=904 466 438 301 165 187 251 100 194 89 90 77 75 107 165 145 117 98 40 60 151 58 93 40 62 70 58 47 80 50
internal_count=904 466 438 301 165 187 251 100 194 89 90 77 75 107 165 145 117 98 40 60 151 58 93 40 62 70 58 47 80 50
is_linear=0
shrinkage=0.05


Tree=15
num_leaves=31
num_cat=0
split_feature=12 12 12 7 12 8 20 7 33 31 17 8 34 3 0 32 36 21 42 43 20 15 43 1 16 0 2 43 14 2
split_gain=2.06097e+07 1.79975e+06 1.47665e+06 354832 314125 210712 151293 128646 92955.4 92696 83662.5 75296.3 70730 78873.5 108289 68551.7 62171.3 57917.1 57481.8 53751.7 96455.2 54292.8 49688 47392.2 46385.7 40983.2 40952.6 37904.3 36045.8 35591.4
threshold=-0.05591647229452347 0.63874350706337069 -0.71466676797886819 158.50000000000003 -0.413274780713969 17.500000000000004 2088.7966247840241 297.50000000000006 319.28456394384938 2050.5125838212534 2413.1611696468622 29.500000000000004 338.90999967040028 3.5000000000000004 346.43263706496072 341.57957982098941 291.37198147413523 101.34106018864965 100.76113956656764 98.630315960678445 1543.9525873300552 1665.309404217983 101.30983485695587 42.693828956420319 1573.044358885358 325.03350551203289 100.18407285278533 100.97395961264628 2044.688579937296 99.585703775136295
decision_type=2 2 2 2 2 2 2 2 2 2 2 2 2 2 2 2 2 2 2 2 2 2 2 2 2 2 2 2 2 2
left_child=2 3 7 6 9 8 -2 19 -3 23 -7 16 17 15 -15 -14 -6 26 -8 20 -1 27 28 -4 -9 -20 -10 -21 -5 -13
right_child=1 5 4 22 11 10 18 24 12 -11 -12 29 13 14 -16 -17 -18 -19 25 21 -22 -23 -24 -25 -26 -27 -28 -29 -30 -31
leaf_value=-11.119716156853571 2.2326682452769844 7.6487821922302253 -3.8428123086690906 -1.4711046309698197 -6.6520063638687139 9.1228217754364014 5.0875622648459213 -10.245654861743635 12.448379394531251 -8.9993763182614313 5.1758569758513886 -3.4112433887663345 9.3184365386962895 5.9116838852564495 10.593091799418133 12.726619264814589 -2.9739625025678564 14.07093620300293 8.7062394710687485 -10.800031585078086 -15.700974655151368 -8.7655684698195682 2.8842185462514562 -6.7488214218870128 -7.2292433929443369 5.6956593662500383 9.4532900969187423 -12.805550816184596 1.1635863111299629 -0.77811083251779734
leaf_weight=27 34 25 20 21 20 25 65 26 25 37 29 21 25 21 30 36 27 25 26 62 20 21 24 47 25 20 21 38 34 33
leaf_count=27 34 25 20 21 20 25 65 26 25 37 29 21 25 21 30 36 27 25 26 62 20 21 24 47 25 20 21 38 34 33
internal_value=-0.055628 6.97267 -8.11165 3.682 -5.06185 9.78607 5.15088 -10.9665 10.5086 -6.99065 7.00316 -3.07575 10.8992 10.1166 8.66545 11.3298 -4.53909 12.1338 6.04475 -11.6342 -13.0692 -11.0768 0.985949 -5.88136 -8.76702 7.39729 11.0811 -11.5621 0.157613 -1.80211
internal_weight=910 486 424 224 205 262 145 219 208 104 54 101 183 112 51 61 47 71 111 168 47 121 79 67 51 46 46 100 55 54
internal_count=910 486 424 224 205 262 145 219 208 104 54 101 183 112 51 61 47 71 111 168 47 121 79 67 51 46 46 100 55 54
is_linear=0
shrinkage=0.05


Tree=16
num_leaves=31
num_cat=0
split_feature=12 12 12 23 12 8 7 21 27 3 17 12 1 1 41 37 41 0 37 37 35 20 34 16 34 37 1 42 18 29
split_gain=1.86003e+07 1.62427e+06 1.33268e+06 374479 283498 190168 116103 88925.5 87776.8 76732 75505.4 74298 71529.4 62951.2 61932.4 60087 56012.1 64447.9 53680.1 52005.7 45967.3 42426.3 42318.6 41863.1 41098.8 46164.4 40800.5 43489 38062.9 37605.5
threshold=-0.05591647229452347 0.63874350706337069 -0.71466676797886819 2310.7289922818823 -0.413274780713969 17.500000000000004 297.50000000000006 55.941135439165755 1928.6431645758655 5.5000000000000009 2413.1611696468622 0.098819223632317002 48.028908098136917 42.693828956420319 49.325662414741664 42.819371997114395 51.894767127516495 354.91340180623945 52.273789577855474 46.195874556844082 270.08894583282046 2453.0463608154259 270.49873980535267 1573.044358885358 269.44287426815674 59.355218049258632 46.026234591811459 99.004465654872959 2458.4231913160761 110.01368156036486
decision_type=2 2 2 2 2 2 2 2 2 2 2 2 2 2 2 2 2 2 2 2 2 2 2 2 2 2 2 2 2 2
left_child=2 3 6 7 8 9 18 -2 20 14 -7 -9 13 -6 15 -3 17 -16 26 -13 -4 -18 -10 -8 25 -20 -1 -28 -17 -5
right_child=1 5 4 29 12 10 23 11 22 -11 -12 19 -14 -15 16 28 21 -19 24 -21 -22 -23 -24 -25 -26 -27 27 -29 -30 -31
leaf_value=-11.447310141960367 4.203403030789417 9.2710808418013837 -6.6745132088661201 3.8962105525864494 -2.602988352094378 8.6666807339191436 -9.7333721491006706 -0.99401200880875473 -6.8521989834308634 7.7716158469518026 4.9170641488042373 -0.038668142855167391 -1.5512234595357155 -6.0926965395609542 7.3682828648309968 13.558385302225751 9.3920345497131361 10.819711031232563 -13.755974197387696 3.2316115640824843 -3.9733302248375759 12.648807182312012 -10.104834423065185 -6.8677811985015866 -9.9822363090515154 -11.020953708224827 -7.4366416215896614 -10.46734564879845 10.88690603574117 6.0351764587468884
leaf_weight=36 23 22 36 27 28 25 26 37 20 33 29 20 49 24 38 30 20 21 36 31 28 20 20 25 20 27 20 29 24 86
leaf_count=36 23 22 36 27 28 25 26 37 20 33 29 20 49 24 38 30 20 21 36 31 28 20 20 25 20 27 20 29 24 86
internal_value=-0.0528466 6.62404 -7.70606 3.4979 -4.80875 9.29676 -10.4182 1.43519 -6.64112 9.98312 6.653 0.711684 -2.92196 -4.21362 10.4002 11.4737 9.57602 8.59676 -11.0525 1.94915 -5.49275 11.0204 -8.47852 -8.32867 -11.9569 -12.5838 -10.1693 -9.23032 12.3711 5.5241
internal_weight=910 486 424 224 205 262 219 111 104 208 54 88 101 52 175 76 99 59 168 51 64 40 40 51 83 63 85 49 54 113
internal_count=910 486 424 224 205 262 219 111 104 208 54 88 101 52 175 76 99 59 168 51 64 40 40 51 83 63 85 49 54 113
is_linear=0
shrinkage=0.05


Tree=17
num_leaves=31
num_cat=0
split_feature=12 12 12 23 12 13 13 13 27 19 8 28 36 16 46 3 32 36 32 43 24 25 0 20 35 4 34 16 23 18
split_gain=1.67867e+07 1.47026e+06 1.20274e+06 401597 255857 119619 109708 104783 79218.5 66819.1 65802.7 69912.6 65751.6 61703.4 89944 60957.3 66777.1 72601.7 68554.2 46650.3 88185.4 49588.7 60556.3 44537 41485.4 39714.6 38192.5 37781.5 35654.6 33732.6
threshold=-0.05591647229452347 0.7025209685794126 -0.71466676797886819 2310.7289922818823 -0.413274780713969 -0.41327860778290426 -0.97106408147883394 0.39752808894539271 1928.6431645758655 2206.6570388255591 29.500000000000004 2009.7664462416235 347.87137387104104 2020.568469578528 99.990622446624215 5.5000000000000009 341.57957982098941 341.55339685515384 359.17940027957349 98.630315960678445 1551.7780785246689 99.361732362907745 256.80925262372637 2270.9633640404359 270.08894583282046 9.5000000000000018 270.49873980535267 1573.044358885358 2414.0630608530491 2449.5995353024696
decision_type=2 2 2 2 2 2 2 2 2 2 2 2 2 2 2 2 2 2 2 2 2 2 2 2 2 2 2 2 2 2
left_child=2 3 7 6 8 12 -2 19 24 28 11 -6 -3 -8 -15 16 17 -7 29 20 -1 22 -21 -11 -4 -23 -10 -9 -5 -18
right_child=1 5 4 9 10 15 13 27 26 23 -12 -13 -14 14 -16 -17 18 -19 -20 21 -22 25 -24 -25 -26 -27 -28 -29 -30 -31
leaf_value=-9.9726777076721191 -0.77237560290556695 5.5745202958583837 -6.3407875756422678 7.5716758330663048 -6.1995321057059556 7.0872298685709643 0.57339891837193413 -9.2467035330258884 -6.5095889687538149 2.3531851799715136 -1.5852180785602994 -2.3348376617431641 9.2290788459777833 1.5039540884395441 5.9300217872316194 7.5426212868520199 13.446983817771631 10.262694388495552 9.3681609405790063 -10.402558942274615 -14.353144407272339 -8.9141048431396488 -6.6011201977729801 5.1518524557352068 -3.7746636801532341 -11.41508162983677 -9.5995925903320316 -6.5243922004699719 5.3463603324360323 10.775060308547248
leaf_weight=27 39 32 36 36 22 30 26 26 20 21 54 25 20 24 22 28 27 45 35 22 20 22 20 44 28 57 20 25 36 21
leaf_count=27 39 32 36 36 22 30 26 26 20 21 54 25 20 24 22 28 27 45 35 22 20 22 20 44 28 57 20 25 36 21
internal_value=-0.0502043 6.29283 -7.32076 3.59875 -4.56832 9.10012 1.36343 -9.89725 -6.30906 5.40984 -2.77587 -4.14384 6.98012 2.52033 3.62077 9.69281 10.0739 8.99251 11.051 -10.4998 -11.8367 -9.98057 -8.59235 4.24767 -5.21811 -10.7186 -8.05459 -7.91224 6.45902 12.278
internal_weight=910 486 424 248 205 238 111 219 104 137 101 47 52 72 46 186 158 75 83 168 47 121 42 65 64 79 40 51 72 48
internal_count=910 486 424 248 205 238 111 219 104 137 101 47 52 72 46 186 158 75 83 168 47 121 42 65 64 79 40 51 72 48
is_linear=0
shrinkage=0.05


Tree=18
num_leaves=31
num_cat=0
split_feature=5 10 36 13 35 13 13 16 45 13 33 25 37 42 29 30 46 34 24 28 37 33 43 37 37 25 34 1 1 37
split_gain=1.49188e+07 1.31712e+06 1.08365e+06 322088 274161 186956 135522 113758 105433 101170 94032.7 74914.1 62759.9 62109.5 65497.5 52756.9 51819.5 76994.2 47998.8 47813 47790.3 44123.9 43896.8 43543.3 43094.6 83320.7 40705.6 46156.5 37533.1 36878.8
threshold=6.5000000000000009 -0.6830127018922193 328.34976035290555 -0.61186373645567615 270.08894583282046 -0.91583036384466876 0.98043284291745803 2050.6984813874446 99.856530632734646 -0.70250145193066593 319.28456394384938 113.78132830484326 52.273789577855474 97.245566469201705 87.378401476179519 1459.3252526264926 99.538447922850381 338.90999967040028 2441.3488301742123 2202.9695741358369 52.520212274685683 298.65011211061989 100.39885314859123 53.006738483695422 44.084584700709947 99.361732362907745 269.44287426815674 43.915918846577711 56.898942754878881 50.656698722630289
decision_type=2 2 2 2 2 2 2 2 2 2 2 2 2 2 2 2 2 2 2 2 2 2 2 2 2 2 2 2 2 2
left_child=2 9 5 20 15 19 11 -7 -9 -2 -5 21 24 -12 -15 22 -16 23 -19 -1 -4 -6 -3 -18 25 -11 27 -14 -29 -10
right_child=1 4 3 10 6 7 -8 8 29 12 13 -13 26 14 16 -17 17 18 -20 -21 -22 -23 -24 -25 -26 -27 -28 28 -30 -31
leaf_value=-1.1944061438242595 -7.0155357556465354 -8.1568982832772399 5.7316817910243305 6.0040338167777429 -3.25276906274516 1.2268056087493897 0.62004841455706849 3.0635676540826497 4.8944706565141685 -7.5401655440745152 6.6105137439001176 -5.3278980529669564 -13.304840233212426 11.977531084807024 7.5621302652359006 -4.1828602216460489 12.608682412367601 10.630884054432746 7.9315921627241996 1.7926707750639403 2.7254779827594757 -0.70362604831655817 -5.2653090635935467 9.5054942893981931 -7.6391411683498296 -11.512068274713332 -8.879809604991566 -9.0962000906467448 -11.892517360051473 7.6663080469767255
leaf_weight=21 39 35 39 26 58 25 27 38 20 23 21 33 21 23 40 22 26 23 58 37 20 24 21 20 39 31 22 24 24 30
leaf_count=21 39 35 39 26 58 25 27 38 20 23 21 33 21 23 40 22 26 23 58 37 20 24 21 20 39 31 22 24 24 30
internal_value=-0.0476941 -6.62083 6.18764 8.0183 -3.87597 3.01878 -2.5678 4.20322 5.0488 -9.32878 8.84123 -3.31625 -9.81908 9.19084 9.47604 -6.25751 9.13152 9.62581 8.69806 0.711143 4.71263 -2.50668 -7.07255 11.2595 -8.90564 -9.82033 -10.7526 -11.3497 -10.4944 6.55757
internal_weight=910 443 467 296 220 171 142 113 88 223 237 115 184 211 190 78 167 127 81 58 59 82 56 46 93 54 91 69 48 50
internal_count=910 443 467 296 220 171 142 113 88 223 237 115 184 211 190 78 167 127 81 58 59 82 56 46 93 54 91 69 48 50
is_linear=0
shrinkage=0.05


Tree=19
num_leaves=31
num_cat=0
split_feature=12 12 12 23 12 7 13 7 33 36 7 1 1 29 34 2 16 3 16 44 44 1 42 42 29 33 19 32 22 22
split_gain=1.36826e+07 1.19846e+06 978554 275297 210570 145582 90710.3 86252.6 74659 72044.5 69207.4 65149 69217.8 59610.6 70839.2 72075.6 52022.8 51674.8 51398.2 45931.2 69015.2 58615.2 53981.5 45550.6 45075.7 41096.4 40801.8 39976.4 40492.9 38499.9
threshold=-0.05591647229452347 0.63874350706337069 -0.71466676797886819 2310.7289922818823 -0.413274780713969 116.50000000000001 -0.97106408147883394 297.50000000000006 319.28456394384938 347.87137387104104 227.50000000000003 46.807323338603695 42.693828956420319 87.378401476179519 333.71373165290623 100.90419857294062 2020.568469578528 3.5000000000000004 2100.0669514300985 97.202123798392719 99.670457932381851 46.622453876594129 98.973565262704625 99.854495096014887 108.29853189950735 290.18433663404278 2314.842612039432 328.58623607913495 2123.655820917023 2157.1202855183096
decision_type=2 2 2 2 2 2 2 2 2 2 2 2 2 2 2 2 2 2 2 2 2 2 2 2 2 2 2 2 2 2
left_child=2 3 7 6 10 8 -2 19 -3 23 -4 12 -6 -10 26 17 -8 -16 -18 -1 21 -21 -22 -7 -24 -13 -15 28 -5 -29
right_child=1 5 4 27 11 9 16 -9 13 -11 -12 25 -14 14 15 -17 18 -19 -20 20 22 -23 24 -25 -26 -27 -28 29 -30 -31
leaf_value=-7.2926685446784605 -0.71465933108941115 6.0852939262390144 -7.0462220625877379 6.7989879275813259 -2.2301862584693093 6.4744027209281931 0.49171382463895363 -7.1323405345280966 11.378654579494311 8.361637377738953 -4.4646687397250426 -2.3759141589656023 -6.0814698886871348 8.945086010297139 8.193641065296374 9.6652639713042827 5.1954635179042823 5.4176933638254807 1.8239785776688504 -13.079217579053797 -7.3377898188198323 -9.8649209953643187 -8.1594390825791798 3.2117374523826268 -11.118724133891446 0.4964405138790608 12.002931251525879 2.4203949032006444 4.1312305846810338 5.0665786675044471
leaf_weight=21 39 25 50 33 28 20 26 51 23 20 54 33 20 24 38 39 20 30 26 23 34 37 22 23 31 20 20 27 25 28
leaf_count=21 39 25 50 33 28 20 26 51 23 20 54 33 20 24 38 39 20 30 26 23 34 37 22 23 31 20 20 27 25 28
internal_value=-0.0453094 5.68131 -6.60931 2.99602 -4.12661 7.97713 1.22744 -8.9333 8.64028 5.88239 -5.7058 -2.5005 -3.83489 9.00738 8.64619 7.95172 2.27941 6.96896 3.28984 -9.48002 -9.7925 -11.0971 -8.89279 4.72926 -9.89034 -1.29201 10.335 4.73329 5.64909 3.76754
internal_weight=910 486 424 224 205 262 111 219 199 63 104 101 48 174 151 107 72 68 46 168 147 60 87 43 53 53 44 113 58 55
internal_count=910 486 424 224 205 262 111 219 199 63 104 101 48 174 151 107 72 68 46 168 147 60 87 43 53 53 44 113 58 55
is_linear=0
shrinkage=0.05


Tree=20
num_leaves=31
num_cat=0
split_feature=12 12 12 12 12 0 8 33 1 37 46 1 12 18 42 37 37 42 28 27 46 1 29 1 18 42 39 38 32 18
split_gain=1.17794e+07 1.00945e+06 980982 177054 150808 107886 105045 97403.6 86161.2 79709.7 87099.7 76572.3 77828.2 74896.5 64654.2 57722.7 54563.4 54282.2 51475.8 57999.1 56812.4 49927.2 48986 48879.8 62619.1 47698.4 39294 37737 48069.1 36504.3
threshold=1.0000000180025095e-35 0.41327478071396911 -0.55601228778889811 0.67760851415498091 -0.88606241628642823 354.17868148607744 49.500000000000007 296.45680553183598 46.46943769301587 51.573672001311031 100.10044085893709 55.530946211157847 0.87379901192678255 2435.1105220780341 99.079065652134915 43.711907707758421 48.432935534014661 99.054506103744941 1673.5568534037118 1924.7105624766848 99.869040763604772 59.355218049258632 114.72441481315443 51.992452216330612 2212.5753515930787 101.4341516646425 48.401388434046318 48.961129913614123 329.26568735493646 2341.1778776500155
decision_type=2 2 2 2 2 2 2 2 2 2 2 2 2 2 2 2 2 2 2 2 2 2 2 2 2 2 2 2 2 2
left_child=2 9 4 25 8 11 7 15 -1 23 -11 12 29 -7 -14 -4 -17 -6 20 -20 -19 -10 -18 24 -2 27 -16 -3 -29 -5
right_child=1 3 6 5 17 13 -8 -9 21 10 -12 -13 14 -15 26 16 22 18 19 -21 -22 -23 -24 -25 -26 -27 -28 28 -30 -31
leaf_value=-10.812782762315539 3.4755485970041029 3.0624106273055078 -2.3846818288167317 6.5703711668650318 -5.0704389358178164 10.74570688387243 -0.80178442922505466 -1.5725334868619318 -7.2350331153188439 5.1833295424779262 1.087628762960434 9.0306315342585251 5.3922747124325152 7.6850008311944142 10.271883419581822 -7.5628334164619453 -2.6145474481582642 -4.4108882784843448 -10.542318601608278 -6.7344615805149077 -7.8223395567673908 -9.7909991436991195 -6.1140485501289374 -0.98813481160572592 -0.34986646175384523 7.3517929998311136 7.2481281930750079 7.1331094369292263 4.2104931934791452 4.023476563481724
leaf_weight=45 23 24 21 24 39 41 44 38 56 27 25 36 22 39 21 20 20 23 20 20 26 29 20 28 20 22 22 24 34 34
leaf_count=45 23 24 21 24 39 41 44 38 56 27 25 36 22 39 21 20 20 23 20 20 26 29 20 28 20 22 22 24 34 34
internal_value=0.136356 5.61305 -5.92573 7.00661 -7.84415 7.75597 -2.88921 -3.66104 -9.04366 1.72694 3.21424 7.00244 6.40883 9.25361 7.5969 -4.64083 -5.43048 -6.62589 -7.30749 -8.63839 -6.22105 -8.10707 -4.3643 0.637641 1.69629 5.28451 8.72485 4.72987 5.41985 5.07736
internal_weight=887 466 421 343 258 239 163 119 130 123 52 159 123 80 65 81 60 128 89 40 49 85 40 71 43 104 43 82 58 58
internal_count=887 466 421 343 258 239 163 119 130 123 52 159 123 80 65 81 60 128 89 40 49 85 40 71 43 104 43 82 58 58
is_linear=0
shrinkage=0.05


Tree=21
num_leaves=31
num_cat=0
split_feature=12 12 12 12 12 0 14 7 43 1 20 46 18 42 34 42 4 28 7 27 46 41 1 34 15 28 46 25 43 42
split_gain=1.06309e+07 911033 885336 159791 136104 97367.3 99222.8 95336.5 87781.5 77760.5 75902.1 64083.8 56733.1 48989.7 48693.1 53586.1 47473.2 67194.2 46456.9 52344.2 51273.2 46349.9 45059.3 44748.4 44498.1 39500 35723.1 33549.4 31880.1 31705
threshold=1.0000000180025095e-35 0.41327478071396911 -0.55601228778889811 0.67760851415498091 -0.88606241628642823 354.17868148607744 2512.0955255781246 340.50000000000006 100.99549593387171 46.46943769301587 2405.5557302393613 100.45835485961173 2429.9381652939228 99.054506103744941 304.99086206145893 99.615422400641876 14.500000000000002 2089.1761926886311 241.50000000000003 1924.7105624766848 99.869040763604772 50.959661498336423 59.355218049258632 329.6242065656383 1800.6349716540296 2307.3393549106745 99.965598129349374 103.54084229251897 99.579947398961579 99.54949056349291
decision_type=2 2 2 2 2 2 2 2 2 2 2 2 2 2 2 2 2 2 2 2 2 2 2 2 2 2 2 2 2 2
left_child=2 11 4 23 9 6 10 14 12 21 25 16 -7 -6 15 -4 26 -18 19 -15 -20 -1 28 27 -17 -5 -2 -3 -11 -12
right_child=1 3 7 5 13 8 -8 -9 -10 22 29 -13 -14 18 -16 24 17 -19 20 -21 -22 -23 -24 -25 -26 -27 -28 -29 -30 -31
leaf_value=-11.707411407470703 -0.36611691868823509 4.8932668792790386 -5.9896337985992432 7.5876034021377565 -4.8169169647571373 11.560845389189545 4.6008181156807169 -1.050272184827111 6.4040178739107576 -8.1547549174382148 7.1569368680318197 -0.67735789716243744 8.3195287121666812 -10.015202574729919 -1.5085972899740394 -4.7451755898339405 5.2558247172314196 1.6637181997299195 -4.1903438474821009 -6.3977384078502659 -7.4312225681084856 -8.4780588674545285 -9.3014491475861654 3.9629894735474211 -1.9953377096883713 4.6782574857984276 2.4206190710482391 7.4205024704337124 -5.7626711416244509 9.3634901279356431
leaf_weight=25 23 29 27 20 39 27 43 55 26 26 27 24 27 20 22 28 23 30 23 20 26 20 29 51 31 28 23 24 30 41
leaf_count=25 23 29 27 20 39 27 43 55 26 26 27 24 27 20 22 28 23 30 23 20 26 20 29 51 31 28 23 24 30 41
internal_value=0.129538 5.33239 -5.62944 6.65628 -7.45194 7.36817 6.65232 -2.74475 8.79093 -8.59148 7.41279 1.64059 9.94019 -6.2946 -3.60768 -4.14466 2.20252 3.22256 -6.94212 -8.20647 -5.90999 -10.2721 -7.70172 5.02028 -3.30035 5.89048 1.02725 6.03768 -6.87328 8.48736
internal_weight=887 466 421 343 258 239 159 163 80 130 116 123 54 128 108 86 99 53 89 40 49 45 85 104 59 48 46 53 56 68
internal_count=887 466 421 343 258 239 159 163 80 130 116 123 54 128 108 86 99 53 89 40 49 45 85 104 59 48 46 53 56 68
is_linear=0
shrinkage=0.05


Tree=22
num_leaves=31
num_cat=0
split_feature=12 12 12 12 14 20 0 14 8 33 43 29 46 18 15 19 16 15 14 42 40 19 18 29 39 42 18 18 42 3
split_gain=9.59441e+06 822207 799016 144212 126739 107897 87874 89548.5 86875.7 84497.1 79222.8 72729.7 57835.6 51201.6 49067.3 57154.3 52199.3 47918.1 46338.2 43339 50917.5 42525.2 90077.9 36585.3 33202.6 32919.3 32874.9 41660.3 25090.2 24772.4
threshold=1.0000000180025095e-35 0.41327478071396911 -0.55601228778889811 0.67760851415498091 1492.245424268785 1530.2728644568772 354.17868148607744 2512.0955255781246 49.500000000000007 296.45680553183598 100.99549593387171 93.142751694493427 100.45835485961173 2429.9381652939228 1665.309404217983 1492.245424268785 1577.0487403306181 1504.3988594019834 1699.2641037077012 101.4341516646425 50.63790905421272 2275.5181914244936 2027.0365868815122 114.72441481315443 54.254673987122018 100.24823190882854 2493.7647422890736 2307.3884681220343 99.826209115750501 2.5000000000000004
decision_type=2 2 2 2 2 2 2 2 2 2 2 2 2 2 2 2 2 2 2 2 2 2 2 2 2 2 2 2 2 2
left_child=2 12 4 19 17 -6 7 11 9 23 13 -5 21 -8 15 -7 -17 -1 -16 20 -3 22 -2 -4 -22 -18 27 -13 -29 -9
right_child=1 3 8 6 5 14 10 29 -10 -11 -12 26 -14 -15 18 16 25 -19 -20 -21 24 -23 -24 -25 -26 -27 -28 28 -30 -31
leaf_value=-7.4763533263370903 1.0730865273511772 2.24505075170942 -3.119249808482635 9.5596797445546038 -9.0393697102864579 -4.4754962203403315 10.982802984449599 5.6577489888668069 -0.70918157473206522 -1.364201654748697 6.0838171078608596 7.3517993739673075 -0.64349000702301673 7.9035522549240689 -3.8202075632607064 -9.0355025432727967 -5.1380269302262205 -10.207382543881735 -6.7084504820051656 6.7398220999674372 5.9331206092963349 0.72152545385890543 4.8586612903078397 -5.2459639205857895 3.4802764504978607 -7.8144057488441465 8.0135048270225528 3.5823807096481328 6.0568922860281811 3.2516713345180386
leaf_weight=29 33 23 39 23 33 24 27 20 44 38 26 28 24 27 41 27 27 36 21 22 37 36 30 42 22 20 24 20 21 23
leaf_count=29 33 23 39 23 33 24 27 20 44 38 26 28 24 27 41 27 27 36 21 22 37 36 30 42 22 20 24 20 21 23
internal_value=0.123061 5.06577 -5.34797 6.32346 -7.07934 -6.43622 6.99976 6.3197 -2.60751 -3.30942 8.35139 7.04215 1.55856 9.44318 -5.89932 -6.59577 -7.28342 -8.98892 -4.79848 4.76927 4.24058 2.09239 2.87574 -4.22199 5.0185 -6.27691 6.41954 5.86511 4.84981 4.37078
internal_weight=887 466 421 343 258 193 239 159 163 119 80 116 123 54 160 98 74 65 62 104 82 99 63 81 59 47 93 69 41 43
internal_count=887 466 421 343 258 193 239 159 163 119 80 116 123 54 160 98 74 65 62 104 82 99 63 81 59 47 93 69 41 43
is_linear=0
shrinkage=0.05


Tree=23
num_leaves=31
num_cat=0
split_feature=12 12 12 7 14 20 0 7 16 18 0 35 43 40 32 18 23 18 31 15 19 16 14 1 43 32 2 1 43 25
split_gain=8.65895e+06 742042 721112 131698 114382 97377.1 89824.3 79173.5 73813.7 61574.1 60280.9 72699 59828.7 55368.2 54306.3 70709 56215 48527.5 48190.8 44283.2 51581.8 47109.9 41820.2 40776.7 39747.3 37863.7 36314.3 28515.5 27519.8 25290.2
threshold=1.0000000180025095e-35 0.41327478071396911 -0.55601228778889811 132.50000000000003 1492.245424268785 1530.2728644568772 354.17868148607744 342.50000000000006 2472.1700769110307 2410.5702100396725 340.27146680528892 343.12329100089738 100.99549593387171 51.226084986793261 306.96192836018935 2241.4150662912557 2207.233537979585 2049.2363966697235 1766.1700405942972 1665.309404217983 1492.245424268785 1577.0487403306181 1699.2641037077012 39.873211434426182 99.579947398961579 286.4288059413127 100.99923884925165 55.73067366090045 98.775382992034764 100.85659929148815
decision_type=2 2 2 2 2 2 2 2 2 2 2 2 2 2 2 2 2 2 2 2 2 2 2 2 2 2 2 2 2 2
left_child=2 14 4 6 18 -6 8 23 10 -5 11 27 28 -10 16 17 -2 -16 -1 20 -7 -22 -21 -4 -25 -9 -26 -3 -8 -23
right_child=1 3 7 9 5 19 12 25 13 -11 -12 -13 -14 -15 15 -17 -18 -19 -20 22 21 29 -24 24 26 -27 -28 -29 -30 -31
leaf_value=-7.0689644082387293 -1.7292734077998571 4.5328760636096099 -1.2095839537325359 2.6044530499625851 -8.5874012513594202 -4.2517214020093288 7.2348020326523557 -2.2740903232408605 8.8922404650984141 6.0478776289522651 3.7433780001557397 8.6269885778427131 5.9449961344401041 5.8025404272408325 1.9701325324177743 0.47320922698293422 1.5799524112181231 5.4115005459104273 -9.7999165534973152 -3.6291971711123865 -8.5837274162857629 -7.1478480328684277 -6.3730279299474901 -2.0740268886089326 -5.3554702926326447 0.51093553602695463 -2.9688379253659929 6.6365005890528366 9.490167748300653 -4.8276497617363932
leaf_weight=30 21 49 21 37 33 24 21 23 29 20 46 20 30 29 20 28 33 21 35 41 27 23 21 28 37 26 28 24 38 24
leaf_count=30 21 49 21 37 33 24 21 23 29 20 46 20 30 29 20 28 33 21 35 41 27 23 21 28 37 26 28 24 38 24
internal_value=0.116908 4.81248 -5.08057 6.00729 -6.72538 -6.11441 6.44468 -2.47714 5.84909 3.81267 5.2239 5.9562 7.763 7.34739 1.48063 2.41006 0.293031 3.73278 -8.53948 -5.60435 -6.26598 -6.91925 -4.55856 -3.1996 -3.64895 -0.796321 -4.32738 5.22448 8.68741 -5.96307
internal_weight=887 466 421 343 258 193 286 163 197 57 139 93 89 58 123 69 54 41 65 160 98 74 62 114 93 49 65 73 59 47
internal_count=887 466 421 343 258 193 286 163 197 57 139 93 89 58 123 69 54 41 65 160 98 74 62 114 93 49 65 73 59 47
is_linear=0
shrinkage=0.05


Tree=24
num_leaves=31
num_cat=0
split_feature=12 12 12 12 7 33 0 34 0 14 37 46 43 29 16 43 14 18 1 18 1 34 40 14 3 29 25 1 18 18
split_gain=7.8147e+06 669693 651906 119443 110313 117970 84200.9 85527.1 71831.1 79608.7 69477.8 67685.1 65514 62806.1 62064.1 51853.8 50591.7 45745.4 43942.3 52302.6 43623.5 39551.4 38785.2 51759.2 37595.2 30140.6 29348.7 29347.7 28261.6 34463.8
threshold=1.0000000180025095e-35 0.41327478071396911 -0.67760851415498069 0.67760851415498091 336.50000000000006 296.45680553183598 275.90483852416736 246.71041563865882 354.17868148607744 2512.0955255781246 51.573672001311031 100.10044085893709 100.99549593387171 93.142751694493427 1504.3988594019834 99.559792318492512 1492.245424268785 2429.9381652939228 51.992452216330612 2212.5753515930787 47.583267743288779 329.6242065656383 51.618331200407567 1670.5853206334511 2.5000000000000004 121.9232493157416 103.54084229251897 48.776169671414998 2435.1105220780341 2307.3884681220343
decision_type=2 2 2 2 2 2 2 2 2 2 2 2 2 2 2 2 2 2 2 2 2 2 2 2 2 2 2 2 2 2
left_child=2 10 6 21 5 15 7 20 9 13 18 -12 17 -5 -9 -4 -16 -10 19 -2 -1 26 23 -18 -17 28 -3 -11 29 -15
right_child=1 3 4 8 -6 -7 -8 14 12 27 11 -13 -14 25 16 24 22 -19 -20 -21 -22 -23 -24 -25 -26 -27 -28 -29 -30 -31
leaf_value=-10.461974857164467 3.0194775498431663 4.1786060349694614 -2.8453180695912152 8.7282106897105347 -1.0266483657889898 -1.1863797952862163 -4.2356923005978269 -8.1514728301610706 9.992567352012351 2.469191168546677 4.5309840714489971 0.92049152612686158 5.4823763663952167 5.9056429636478427 -7.8700996025748884 -3.8825617556061065 -4.6613076053346907 7.0820069419013123 -1.1518591774361473 -0.47664813041687015 -7.4987173027462433 3.2984810693591253 -3.3643286960465568 -7.7146813765816065 -6.2971170679519055 7.4768628892444431 6.5423367162545523 5.0880519846211314 6.4315586745738988 2.9703479838371276
leaf_weight=23 23 29 33 23 63 38 30 39 27 20 27 25 26 20 23 28 35 27 28 20 27 51 21 23 38 21 24 23 32 20
leaf_count=23 23 29 33 23 63 38 30 39 27 20 27 25 26 20 23 28 35 27 28 20 27 51 21 23 38 21 24 23 32 20
internal_value=0.111062 4.57186 -4.82654 5.70692 -2.75829 -3.5546 -6.69826 -7.08505 6.32241 5.70756 1.4066 2.79517 7.54444 6.38873 -6.45499 -4.46361 -5.80634 8.53729 0.389619 1.39337 -8.86182 4.29248 -5.2055 -5.87213 -5.27276 5.81015 5.24897 3.86998 5.32402 4.438
internal_weight=887 466 421 343 200 137 221 191 239 159 123 52 80 116 141 99 102 54 71 43 50 104 79 58 66 93 53 43 72 40
internal_count=887 466 421 343 200 137 221 191 239 159 123 52 80 116 141 99 102 54 71 43 50 104 79 58 66 93 53 43 72 40
is_linear=0
shrinkage=0.05


Tree=25
num_leaves=31
num_cat=0
split_feature=7 10 35 20 2 7 19 7 33 20 25 44 44 0 21 42 42 1 45 29 20 16 25 16 29 34 32 36 34 45
split_gain=7.2916e+06 787596 502342 100675 95437.2 83334.6 101010 76222.1 73043 69799.1 65622.7 61708.1 57011 55292.9 49306.6 48858.8 47312.5 45685.6 39535.3 36224.6 64323.6 35673.6 34075.7 32613.8 35069.3 32433.9 30185.1 30124.6 33904.9 29706.5
threshold=172.50000000000003 -0.5 331.59525171369029 1561.521573633969 102.23718227840955 108.50000000000001 2143.3407088219678 353.50000000000006 293.21148090743924 2270.9633640404359 121.43499827931626 101.76822649725968 101.30983485695587 261.48480131034677 101.03900237926894 98.558243429123024 100.17561208207125 54.707932838932045 100.15239335541351 106.20808177657145 1499.4733734072709 1862.9128727917766 93.472707496094358 1573.044358885358 117.51145583647539 331.71030777592154 287.63387571208705 345.40654227385784 330.4357406694042 100.0911625737762
decision_type=2 2 2 2 2 2 2 2 2 2 2 2 2 2 2 2 2 2 2 2 2 2 2 2 2 2 2 2 2 2
left_child=2 3 9 11 13 6 -4 8 17 10 16 19 25 22 -7 -8 -1 21 -18 -2 -21 -3 -5 -15 -25 -11 -10 28 -17 -29
right_child=1 7 5 4 -6 14 15 -9 26 12 -12 -13 -14 23 -16 27 18 -19 -20 20 -22 -23 -24 24 -26 -27 -28 29 -30 -31
leaf_value=0.19509712824454675 -6.1563826434314253 -4.8813064237435668 4.0795919821908084 -7.0411578142642988 -8.3906092143058775 6.0961972135486029 5.3895797368458345 0.48635631874203683 0.53184857368469241 6.3167187261581423 4.0982853240966799 -4.6245718717575075 1.6588276228734427 -5.6250967001914987 3.6342607700880971 6.8655170917510988 1.1108353862395652 -1.4341308099882943 4.0677570796012885 -6.1012936234474182 -9.3065885967678508 -2.4227111997604371 -4.7594909297095409 -2.3121133359702859 -4.6820726368162369 3.638495855148022 -1.7841326700413931 7.8228230081755541 9.3055028315952839 5.5395653592688703
leaf_weight=52 32 36 36 30 20 33 35 32 24 20 25 22 21 20 53 24 26 28 20 24 45 25 36 37 27 26 34 29 35 28
leaf_count=52 32 36 36 30 20 33 35 32 24 20 25 22 21 20 53 24 26 28 20 24 45 25 36 37 27 26 34 29 35 28
internal_value=0.0350001 -4.33816 4.49316 -5.93456 -5.1462 5.86713 6.45955 -1.72505 -2.20644 2.519 1.8117 -7.02417 3.81747 -4.71362 4.57896 7.02695 1.22839 -3.10619 2.39645 -7.54685 -8.1917 -3.87369 -5.79661 -3.86269 -3.31194 4.80294 -0.825796 7.52099 8.31297 6.70122
internal_weight=935 472 463 293 170 273 187 179 147 190 123 123 67 150 86 151 98 89 46 101 69 61 66 84 64 46 58 116 59 57
internal_count=935 472 463 293 170 273 187 179 147 190 123 123 67 150 86 151 98 89 46 101 69 61 66 84 64 46 58 116 59 57
is_linear=0
shrinkage=0.05


Tree=26
num_leaves=31
num_cat=0
split_feature=7 12 12 12 2 19 29 37 38 24 33 7 8 19 14 44 2 44 44 37 4 0 17 33 37 35 1 1 1 0
split_gain=6.58067e+06 733668 462799 125022 65847.1 67347.3 62603.4 61833.1 66890.6 56131.9 53791.4 47444.2 44455.2 45253.5 46620.4 43922.8 48056.8 75931.5 43748.1 42003.8 41602.4 46133.7 39924.8 38299.3 38586.5 34781.5 31326.5 30122.8 65338.3 41131.7
threshold=172.50000000000003 -0.413274780713969 0.69016699705532247 -0.71466676797886819 99.384739671858156 1475.4136024546117 87.378401476179519 39.77404475776661 38.871866501622286 1575.0021615230801 305.39944395378444 353.50000000000006 15.500000000000002 2143.3407088219678 2345.5567996377627 97.607510631016723 100.48433197606744 99.553258672912889 98.780015498626128 48.17963931742397 12.500000000000002 343.56506468044023 2413.1611696468622 293.21148090743924 45.255453383467383 301.99694844283005 52.578642606819663 55.45899503112296 49.73248113671432 322.49017861627533
decision_type=2 2 2 2 2 2 2 2 2 2 2 2 2 2 2 2 2 2 2 2 2 2 2 2 2 2 2 2 2 2
left_child=2 3 7 4 5 -2 -4 -1 -9 -7 -10 23 13 -8 -15 -6 -17 -18 -5 -20 21 -16 -14 24 -3 -25 -22 28 29 -12
right_child=1 11 6 18 15 9 12 8 10 -11 27 -13 22 14 20 16 17 -19 19 -21 26 -23 -24 25 -26 -27 -28 -29 -30 -31
leaf_value=0.51942779223124191 -2.5768684604763985 -0.89078294237454747 7.8304063669840493 -6.1237513655707954 -4.9373167991638187 -7.0863775491714485 3.9806233180893793 0.69033222856192755 1.477360240490206 -4.1972250576676995 6.0849341089075262 0.46203849613666537 5.6963082375197578 8.2209991684183485 5.0062290782020211 -8.7946262076094346 -8.6989687149524695 -5.1862955746799706 -4.9785747426928895 -2.7062599861396937 3.9596537156237499 8.0414500451857034 3.2185236524891212 0.46313033525286057 -3.3933483009421552 -2.1405200408852618 6.3544989976015955 5.2179237168410735 1.5712552310898902 3.2385851470629379
leaf_weight=33 20 24 30 21 23 40 27 29 31 29 22 32 29 24 21 37 25 40 33 53 36 31 37 29 43 23 22 29 32 30
leaf_count=33 20 24 30 21 23 40 27 29 31 29 22 32 29 24 21 37 25 40 33 53 36 31 37 29 43 23 22 29 32 30
internal_value=0.0332501 -4.12125 4.26851 -5.47327 -6.17102 -5.1316 5.68379 2.50284 2.88118 -5.8721 3.32239 -1.24708 5.40009 5.84809 6.22438 -6.91108 -7.35615 -6.53732 -4.07779 -3.57819 5.78875 6.81569 4.30725 -1.70667 -2.49691 -0.688484 4.86804 3.82855 3.34888 4.44281
internal_weight=935 472 463 321 214 89 257 206 173 69 144 151 227 161 134 125 102 65 107 86 110 52 66 119 67 52 58 113 84 52
internal_count=935 472 463 321 214 89 257 206 173 69 144 151 227 161 134 125 102 65 107 86 110 52 66 119 67 52 58 113 84 52
is_linear=0
shrinkage=0.05


Tree=27
num_leaves=31
num_cat=0
split_feature=12 23 12 12 13 12 19 0 38 3 14 0 7 38 43 26 39 42 34 25 41 33 19 29 34 14 42 32 16 15
split_gain=5.94389e+06 604926 430855 95441.2 89599.3 89451.1 66371.8 59782.2 58716.9 68162.2 56810.8 55743.3 45402 44258 41976.6 42896.7 45341.5 41883.2 39956.7 50663.7 55229.6 39441.9 38833.5 60095.2 38687.1 39852.6 34632.3 34533.2 35528.9 25301.3
threshold=-0.05591647229452347 2419.035135473363 -0.47494667389482609 -0.93535928755917819 -0.98518361333263327 0.86095304316285726 2190.1554968074047 239.87044035310683 38.249733495181239 3.5000000000000004 2311.0130073085152 357.25734912472097 316.50000000000006 51.849430058054992 98.194461814525894 1812.4682722532905 56.036841950799563 100.19771412911716 338.90999967040028 83.644711783140991 50.606949229946899 299.92344073052817 1625.2623723225408 111.58597661500691 334.72280361227257 2332.290499958603 100.44245539194814 285.7144936485841 1846.8303519013677 2503.691718237164
decision_type=2 2 2 2 2 2 2 2 2 2 2 2 2 2 2 2 2 2 2 2 2 2 2 2 2 2 2 2 2 2
left_child=2 4 3 7 -2 11 21 -1 -5 12 14 24 -10 -9 -6 -16 17 -17 29 -20 -21 27 -11 -24 25 -3 -26 28 -4 -7
right_child=1 5 6 8 10 18 -8 13 9 22 -12 -13 -14 -15 15 16 -18 -19 19 20 -22 -23 23 -25 26 -27 -28 -29 -30 -31
leaf_value=-4.4647357404232029 -0.96159297426541657 6.1130005924789996 -4.2599908324805176 -6.9861360168457027 3.4909221915098336 6.1159335835774744 -4.305813806471618 -8.6567879620720358 -4.1375599460469354 -4.2461182330105762 4.506065299510956 6.4775395040926727 -1.6643714919686319 -6.1736511327718437 3.3954673653841021 0.3295773556357936 -0.89399515257941364 2.6929256065471754 7.1139208934704463 5.538668660738252 2.5744608808647502 0.39331637236475947 -8.4825335645675661 -4.8369502131755544 4.0072481177747248 3.6006451270297952 1.5993812182119915 -0.80721758894431295 -1.3482058787345887 8.3483311653137218
leaf_weight=24 30 27 22 25 26 30 23 34 72 37 20 23 25 38 20 38 27 37 30 55 22 25 20 26 32 38 28 39 20 22
leaf_count=24 30 27 22 25 26 30 23 34 72 37 20 23 25 38 20 38 27 37 30 55 22 25 20 26 32 38 28 39 20 22
internal_value=0.0315876 3.71023 -4.28868 -5.32481 1.55541 5.09999 -1.87106 -6.62587 -4.71554 -4.40017 2.00487 4.21536 -3.50014 -7.34624 1.66688 1.27814 0.862984 1.4955 5.92342 5.37086 4.69175 -1.34276 -5.45202 -6.42199 3.79912 4.64424 2.88358 -1.87859 -2.87343 7.06041
internal_weight=935 505 430 301 198 307 129 96 205 180 168 148 97 72 148 122 102 75 159 107 77 106 83 46 125 65 60 81 42 52
internal_count=935 505 430 301 198 307 129 96 205 180 168 148 97 72 148 122 102 75 159 107 77 106 83 46 125 65 60 81 42 52
is_linear=0
shrinkage=0.05


Tree=28
num_leaves=31
num_cat=0
split_feature=12 35 12 13 12 7 19 19 16 2 43 0 41 1 19 25 45 2 42 38 18 16 2 19 0 1 46 38 12 43
split_gain=5.36436e+06 552183 388846 100733 86135.7 63275.4 75780.6 59900.5 58753.3 65677.6 54153.7 53953.5 48452.8 46170.9 46055 53147.5 44219.7 43043 42636.8 41814.5 41807.3 39508.6 38184.6 34629.2 55139.1 39743.1 33335.1 33317.6 28856.3 27969.8
threshold=-0.05591647229452347 331.59525171369029 -0.47494667389482609 -0.93533330245768853 -0.93535928755917819 108.50000000000001 2143.3407088219678 2190.1554968074047 2008.930076363237 98.194461814525894 97.891056829155218 239.87044035310683 50.255563578896847 46.807323338603695 2469.3151628897244 104.06279451576935 99.737306085758675 102.174381715064 98.798233534744995 39.314563247081686 1565.8376734011681 2117.4586226301258 99.836239011381778 1499.1135744163323 261.12901170870884 44.814555276523301 100.17680394658139 51.849430058054992 0.51236666743397874 99.966383583190279
decision_type=2 2 2 2 2 2 2 2 2 2 2 2 2 2 2 2 2 2 2 2 2 2 2 2 2 2 2 2 2 2
left_child=2 3 4 12 11 6 -3 13 -5 -10 -6 -1 -2 -4 -7 -16 -15 19 -8 -12 27 -11 29 -21 -25 -26 -18 -13 -24 -23
right_child=1 5 7 8 10 14 18 -9 9 21 17 20 -14 16 15 -17 26 -19 -20 23 -22 22 28 24 25 -27 -28 -29 -30 -31
leaf_value=-4.2414989391962683 1.1488632924628981 3.5036808199352691 -2.538720387636229 0.027822498480478925 -6.7114844163258871 2.7959335751154208 4.6077167937630099 -4.0905231185581377 0.79267893791198729 4.9806647378664755 -6.0515935039520272 -7.6469771575927741 -1.8037345608075459 -2.3558532232046128 6.8893300442468561 3.3320620831989105 1.8500551256266509 -6.3715000188350679 6.5437805249627718 -2.1013634075721104 -8.6309260101318355 5.2415111732482913 0.43517920612579303 -5.3655621306101482 -1.4181446148001631 -3.9931279420852661 -0.93500188929694039 -4.9544579205689612 2.8688791727197582 2.5971867763996124
leaf_weight=24 33 36 43 24 24 44 38 23 35 26 20 20 24 20 21 21 22 20 113 30 25 20 21 45 23 43 21 27 29 20
leaf_count=24 33 36 43 24 24 44 38 23 35 26 20 20 24 20 21 21 22 20 113 30 25 20 21 45 23 43 21 27 29 20
internal_value=0.0300082 3.52472 -4.07425 1.73121 -5.05857 5.04888 5.5651 -1.7775 2.32582 2.69107 -4.47976 -6.29457 -0.0943358 -1.27562 3.9264 5.1107 -0.413506 -4.18384 6.05656 -3.91208 -6.97893 3.26386 2.76789 -3.6086 -4.01597 -3.09579 0.489911 -6.10021 1.84673 3.91935
internal_weight=935 505 430 232 301 273 187 129 175 151 205 96 57 106 86 42 63 181 151 161 72 116 90 141 111 66 43 47 50 40
internal_count=935 505 430 232 301 273 187 129 175 151 205 96 57 106 86 42 63 181 151 161 72 116 90 141 111 66 43 47 50 40
is_linear=0
shrinkage=0.05


Tree=29
num_leaves=31
num_cat=0
split_feature=12 23 12 13 15 12 18 42 2 2 16 2 33 2 42 37 31 42 43 32 15 28 29 33 1 1 7 15 41 41
split_gain=4.84134e+06 495897 351313 76013.2 75260.4 70949.5 62972 55890.2 54451.4 53476.1 70471.6 51681.8 51640.2 51637.9 50619.9 64593 56323.4 46674.2 44055.2 43279.7 39694.1 39624.8 48063.7 44783.8 38384.5 37436.8 45160.8 35177 32700.2 30888.2
threshold=-0.05591647229452347 2419.035135473363 -0.49750868180287638 -0.82389248692129191 1716.6764161691815 0.86095304316285726 2043.3467747998513 102.31010736228666 102.2666672872631 97.299670966275798 1565.8376734011681 99.023818546940916 296.45680553183598 99.384739671858156 98.18628249625398 41.464832419218787 2587.274749730303 101.39218670117411 99.393085607256964 325.34002071398874 2028.7205527537005 2395.1586670579832 87.378401476179519 368.77401038991752 54.893839812493582 43.840175894850056 339.50000000000006 1508.3972647570413 51.657222024545845 50.606949229946899
decision_type=2 2 2 2 2 2 2 2 2 2 2 2 2 2 2 2 2 2 2 2 2 2 2 2 2 2 2 2 2 2
left_child=2 3 4 17 7 14 20 8 9 -1 13 -8 24 -11 -3 -16 19 18 -2 -17 -5 -7 -23 29 25 -4 -27 -15 -12 -24
right_child=1 5 12 6 -6 21 11 -9 -10 10 28 -13 -14 27 15 16 -18 -19 -20 -21 -22 22 23 -25 -26 26 -28 -29 -30 -31
leaf_value=-6.8182987670898445 1.3665528202056887 5.7764743584173699 -1.6989083290100098 2.756975681537932 -3.037365326533715 7.3635422661190946 1.4734198729197185 -7.442740097045899 -7.0966254417712875 -3.5325888086248329 -2.5932425740632148 4.6109605448586599 -0.24168182275234124 -4.6981844514608389 5.4397483402285083 2.0310136817750477 1.2913295657206805 2.0165423824236943 -1.5326327179607593 4.95224138610065 0.061194369528028703 6.8026959292093911 4.694950573841731 6.6761418318748476 -0.78821529282463931 -5.6938813525438308 -2.3337915444374082 -7.1835228838239402 -4.6922971125159947 2.6837621948548729
leaf_weight=25 20 27 31 22 48 21 21 25 26 27 55 35 39 24 29 21 39 26 38 32 36 30 60 20 27 20 20 35 28 28
leaf_count=25 20 27 31 22 48 21 21 25 26 27 55 35 39 24 29 21 39 26 38 32 36 30 60 20 27 20 20 35 28 28
internal_value=0.0285078 3.34849 -3.87054 1.39749 -4.8478 4.60678 2.23844 -5.20249 -4.94792 -4.65995 -4.34066 3.43438 -1.78049 -5.34372 3.81893 3.38213 2.73353 0.256204 -0.532914 3.79477 1.08373 5.34013 5.03222 4.54042 -2.39287 -3.00309 -4.01384 -6.17254 -3.30136 4.05503
internal_weight=935 505 430 198 293 307 114 245 220 194 169 56 137 86 148 121 92 84 58 53 58 159 138 108 98 71 40 59 83 88
internal_count=935 505 430 198 293 307 114 245 220 194 169 56 137 86 148 121 92 84 58 53 58 159 138 108 98 71 40 59 83 88
is_linear=0
shrinkage=0.05


Tree=30
num_leaves=31
num_cat=0
split_feature=12 12 12 22 30 7 12 0 42 0 37 30 45 33 30 28 14 3 15 29 3 0 1 26 39 42 38 45 15 37
split_gain=4.62484e+06 428935 401300 77360.9 78698 68871.2 63519.8 58937 56997.5 47789.2 60919.6 46736.5 53398.7 46437.4 46140.4 45578.3 40666.3 43217.2 40456.8 64228.5 43645.4 45638.8 35862.8 34041.5 34225.6 31673.1 29058.9 27547.3 25994.8 24141.1
threshold=1.0000000180025095e-35 0.52707282776374187 -0.6254047815183511 1743.2542422095273 1581.2412479098236 132.50000000000003 0.25118773779856129 259.24147284544478 100.43049191290537 354.17868148607744 61.960048927610835 1265.5786987927272 100.26994630112227 257.82648764136633 1913.8604978363255 2472.1542932053203 1466.9111715813567 1.5000000000000002 2397.0284287503873 110.01368156036486 2.5000000000000004 329.6242065656383 48.028908098136917 1830.0068860090846 48.028908098136917 99.629929703368035 49.235566752255629 100.0911625737762 1559.2377265356479 48.17963931742397
decision_type=2 2 2 2 2 2 2 2 2 2 2 2 2 2 2 2 2 2 2 2 2 2 2 2 2 2 2 2 2 2
left_child=2 6 7 4 29 9 8 16 -2 10 18 -9 13 -13 -8 26 -1 -18 19 -3 27 -22 -16 24 -5 -7 -11 -20 -19 -4
right_child=1 5 3 23 -6 25 14 11 -10 15 -12 12 -14 -15 22 -17 17 28 20 -21 21 -23 -24 -25 -26 -27 -28 -29 -30 -31
leaf_value=-7.8621749444441367 1.4427898257206648 0.95597979128360755 -3.1579987851778668 1.4429939892320407 -4.8157701740393772 3.8905569791793826 3.4265771108704643 -6.4655676364898689 -1.2967122068276278 7.6824662584524894 6.5425934048990415 -3.3043332613176775 -1.9697530595155861 -5.7946294766206012 2.7579450321197512 3.928158858189216 -3.9611237473785881 -7.1025365299872449 7.0672508239746099 4.1642557663795277 5.3981812760943457 2.4164586735494211 0.042249684179982837 -2.4503949598832566 -1.2272727881159102 1.2940202961365381 5.3804660624471206 4.4429735994338992 -5.2637649071216588 -1.3705008433437815
leaf_weight=22 39 26 30 21 37 23 37 22 37 26 24 36 26 39 20 26 32 37 20 39 21 33 31 22 28 24 29 20 40 51
leaf_count=22 39 26 30 21 37 23 37 22 37 26 24 36 26 39 20 26 32 37 20 39 21 33 31 22 28 24 29 20 40 51
internal_value=-0.190277 3.23702 -3.86515 -2.12057 -2.90525 4.32811 1.16794 -5.16327 0.109085 4.64206 4.1945 -4.37726 -3.92238 -4.59929 2.08241 5.65321 -5.90128 -5.50551 3.84007 2.88095 4.50329 3.57602 1.10723 -0.816471 -0.0828727 2.56467 6.46868 5.75511 -6.14733 -2.03254
internal_weight=918 475 443 189 118 311 164 254 76 264 183 123 101 75 88 81 131 109 159 65 94 54 51 71 49 47 55 40 77 81
internal_count=918 475 443 189 118 311 164 254 76 264 183 123 101 75 88 81 131 109 159 65 94 54 51 71 49 47 55 40 77 81
is_linear=0
shrinkage=0.05


Tree=31
num_leaves=31
num_cat=0
split_feature=14 15 23 8 13 22 26 8 38 8 0 13 34 27 42 16 39 41 16 14 5 32 32 3 42 41 24 43 23 33
split_gain=4.16175e+06 418105 320967 80664.8 70688.7 68968.8 84529.2 60657 55555.2 52039.3 50419.7 67814.8 46161.2 52060.9 45943.7 45784.4 44268.3 43788.4 40646.8 53847.1 39147.9 38018.5 36459.3 34101.3 28161.3 30728.6 34180.2 33905.9 28147.4 44481.6
threshold=2028.7205527537005 1739.8700972991921 2458.5134622095165 46.500000000000007 -0.93533330245768853 1743.2542422095273 1841.5979927831515 2.5000000000000004 59.541264784798514 34.500000000000007 354.17868148607744 0.33345642693991789 242.46427047061442 1734.7227696693585 100.79356825051059 2182.7342681237806 54.74319822765306 49.325662414741664 2472.1700769110307 2540.0164573325314 11.500000000000002 351.81174199999401 343.31293601535918 4.5000000000000009 102.31010736228666 48.566008846521029 1644.0271071602044 100.33297376610071 1623.4641481605242 265.55005729396703
decision_type=2 2 2 2 2 2 2 2 2 2 2 2 2 2 2 2 2 2 2 2 2 2 2 2 2 2 2 2 2 2
left_child=1 3 4 12 17 9 14 -6 15 -3 18 21 13 -1 20 -9 -17 -2 19 22 -7 -12 -4 -20 25 27 28 -14 -27 -30
right_child=2 5 10 -5 7 6 -8 8 -10 -11 11 -13 24 -15 -16 16 -18 -19 23 -21 -22 -23 -24 -25 -26 26 -28 -29 29 -31
leaf_value=-5.0771973296999935 1.3165474614926749 -4.119539892162595 3.0398247687298743 -2.2977180849640599 -0.073536504308382669 2.946210333108902 -2.8440981126825018 4.9082091565789847 0.56884221831957504 -1.6159352197366603 5.5722818084061148 7.742413087324663 -6.901083398901898 -8.3290996003150948 -1.5128799603098917 1.4728891899711209 4.3790763060748574 -1.6643308336084541 5.6658961084153923 1.1106356219811875 -0.14473784196944464 2.9072026815103449 4.9281525871970437 3.2257756131035942 -6.1934190704272352 -2.7807871103286743 -2.4984467829976764 -4.1222626095726378 -4.1189539711354142 -6.6354951858520508
leaf_weight=32 28 35 61 31 24 20 30 29 24 51 32 22 23 20 21 38 20 22 45 22 21 23 44 21 26 20 28 21 59 25
leaf_count=32 28 35 61 31 24 20 30 29 24 51 32 22 23 20 21 38 20 22 45 22 21 23 44 21 26 20 28 21 59 25
internal_value=-0.180764 -3.51811 3.21526 -4.70555 1.61094 -1.61688 -0.665312 2.20575 2.69857 -2.63484 4.31452 5.39626 -4.99942 -6.32793 0.388939 3.28608 2.47502 0.00496101 3.88295 3.35986 1.36304 4.45779 3.83112 4.88949 -4.65742 -4.43051 -4.04908 -5.57483 -4.46655 -4.86792
internal_weight=918 463 455 285 185 178 92 135 111 86 270 77 254 52 62 87 58 50 193 127 41 55 105 66 202 176 132 44 104 84
internal_count=918 463 455 285 185 178 92 135 111 86 270 77 254 52 62 87 58 50 193 127 41 55 105 66 202 176 132 44 104 84
is_linear=0
shrinkage=0.05


Tree=32
num_leaves=31
num_cat=0
split_feature=12 12 12 22 30 7 12 42 15 41 34 15 30 3 25 41 22 46 46 14 22 22 21 15 37 26 42 44 46 33
split_gain=3.77728e+06 350549 325189 61077.6 66088.2 58974.8 50598 49819.3 47158.7 47331.1 53410.3 44597.3 40769 38293 37005.8 32867 32781.8 32018.9 47759.6 35102.5 33284.1 37622.1 34445.9 51949.8 31147.6 29301.7 29127.2 25265.9 23306.5 16748.3
threshold=1.0000000180025095e-35 0.52707282776374187 -0.6254047815183511 1743.2542422095273 1581.2412479098236 132.50000000000003 0.25118773779856129 100.43049191290537 1665.309404217983 49.16184215061994 264.89113290222923 1504.3988594019834 1913.8604978363255 3.5000000000000004 106.00629521097675 50.442247540507559 2153.8529274433845 99.538447922850381 99.701397530989752 2327.0644397502315 2256.2946137253198 2293.4895191496066 99.406962954646218 2506.9985540386456 55.348250771113207 1789.1143016182934 99.629929703368035 100.03172307825294 99.381985875646691 257.82648764136633
decision_type=2 2 2 2 2 2 2 2 2 2 2 2 2 2 2 2 2 2 2 2 2 2 2 2 2 2 2 2 2 2
left_child=2 6 8 4 27 17 7 -2 9 11 14 -1 -8 -10 15 -11 -14 24 -19 -20 -21 -22 23 -23 28 -5 -7 -4 -3 -12
right_child=1 5 3 25 -6 26 12 -9 13 10 29 -13 16 -15 -16 -17 -18 18 19 20 21 22 -24 -25 -26 -27 -28 -29 -30 -31
leaf_value=-4.313096408843994 1.3570157460677319 3.5106552907714139 -2.8071728999416035 0.08039786659535908 -4.3703962844771311 3.5516703785761545 3.1348342623259571 -1.2041788737516148 -2.5714875259050509 -2.8198503923416141 -2.1754192507785297 -7.217140549879808 -0.10593331654866536 -5.1204509382662566 -6.5326637380263382 -5.3885642297340164 2.4698009581792926 6.3628413836161295 5.8092237608773374 2.4824414596413122 6.0899448726488199 3.3334959023707622 2.2085423553362489 6.4471145970480777 4.8685868944440571 -1.9860377510046139 1.0616721649964651 -1.0300312235620286 1.2586966967582702 -4.1284477551778158
leaf_weight=20 39 27 36 42 37 23 37 37 41 20 23 39 30 23 34 33 21 30 28 33 23 37 24 21 21 29 24 45 20 21
leaf_count=20 39 27 36 42 37 23 37 37 41 20 23 39 30 23 34 33 21 30 28 33 23 37 24 21 21 29 24 45 20 21
internal_value=-0.171725 2.92565 -3.49284 -1.9224 -2.61961 3.91202 1.05516 0.110118 -4.66139 -5.0568 -4.52719 -6.23272 1.87133 -3.48752 -5.24517 -4.41924 0.954663 4.20253 4.52687 4.19507 3.86756 4.30288 3.80163 4.46084 3.26768 -0.763639 2.28018 -1.81987 2.55238 -3.10755
internal_weight=918 475 443 189 118 311 164 76 254 190 131 59 88 64 87 53 51 264 196 166 138 105 82 58 68 71 47 81 47 44
internal_count=918 475 443 189 118 311 164 76 254 190 131 59 88 64 87 53 51 264 196 166 138 105 82 58 68 71 47 81 47 44
is_linear=0
shrinkage=0.05


Tree=33
num_leaves=31
num_cat=0
split_feature=12 20 12 22 1 1 19 30 38 36 45 39 45 13 0 37 30 0 14 4 20 37 38 45 12 32 39 17 15 3
split_gain=3.409e+06 339840 293491 62202.9 53746 83329.4 77599.2 52061.5 45687.6 49588.3 81131.3 64642.7 51034 43465.4 35793.6 61600.4 48477.7 43320 34721 33938.1 32803.3 32817.4 32487.2 43900.9 31301.5 30247.6 29586.2 26645.3 24209.9 24014.7
threshold=1.0000000180025095e-35 2282.5494641998353 -0.66484924122790601 1743.2542422095273 52.321163327328684 41.315779744782674 2245.2970489523732 1581.2412479098236 58.975228879844686 257.80558929786156 100.25434492278994 45.885401241609095 99.471099324680793 -0.61186373645567615 354.17868148607744 60.044790950775493 2202.7963151931995 340.27146680528892 1520.4073111183418 21.500000000000004 1762.0335375482055 52.273789577855474 45.005135073645782 100.21842459645598 0.26781182513105634 351.81174199999401 51.928146698999825 2412.0281709447668 2399.8430151727071 2.5000000000000004
decision_type=2 2 2 2 2 2 2 2 2 2 2 2 2 2 2 2 2 2 2 2 2 2 2 2 2 2 2 2 2 2
left_child=2 4 8 7 5 -2 -7 20 9 11 12 -1 -11 27 15 17 -16 19 -13 28 21 -4 -5 -24 -6 -18 -19 -3 -15 -30
right_child=1 13 3 22 24 6 -8 -9 -10 10 -12 18 -14 14 16 -17 25 26 -20 -21 -22 -23 23 -25 -26 -27 -28 -29 29 -31
leaf_value=-7.5312749555034024 -0.37833435651846231 3.4678452014923096 -3.4549685248961817 0.81963184605474071 -1.1679954843595624 4.0257588317448443 0.7897916071116925 -4.1518765302684875 -3.2513184779456688 -3.352348297437032 -1.2070814901590348 -3.7695444228617769 -6.1817186425713935 2.1455411938520577 6.8178382797241213 6.1007901212443478 5.2113286818776814 0.93848830461502075 -6.0243950689992598 5.501318085670472 -0.34300832425554595 -1.2945210620760919 -0.015438024282455446 -3.042306434589884 0.9419648671761538 2.7338469407775188 3.4964368289709093 1.2643396784429966 5.2380808483470567 2.9018676270138135
leaf_weight=31 32 34 39 23 32 44 32 37 56 30 20 38 34 26 25 23 28 26 31 25 24 32 25 23 39 22 20 23 22 22
leaf_count=31 32 34 39 23 32 44 32 37 56 30 20 38 34 26 25 23 28 26 31 25 24 32 25 23 39 22 20 23 22 22
internal_value=-0.163139 2.77937 -3.31819 -1.91885 1.05956 1.76204 2.66325 -2.56076 -4.5018 -4.88239 -3.98679 -5.63468 -4.85545 3.81938 4.11528 3.70148 5.0201 3.31011 -4.78259 3.91996 -1.94106 -2.48125 -0.725457 -1.46581 -0.00900318 4.12124 2.05064 2.57871 3.35518 4.06997
internal_weight=918 475 443 203 179 108 76 132 240 184 84 100 64 296 239 164 75 141 69 95 95 71 71 48 71 50 46 57 70 44
internal_count=918 475 443 203 179 108 76 132 240 184 84 100 64 296 239 164 75 141 69 95 95 71 71 48 71 50 46 57 70 44
is_linear=0
shrinkage=0.05


Tree=34
num_leaves=31
num_cat=0
split_feature=14 12 20 0 1 1 19 19 16 2 30 2 38 13 29 41 33 12 0 45 43 45 21 8 1 25 16 44 42 44
split_gain=3.0768e+06 317745 252573 64940.5 51445.6 63614.6 57866.3 44315.3 69991.6 43301.2 42389.4 48936.2 39322 39227.5 44227.1 43154.2 53119.4 37827.7 35709 33089.2 36629.1 29896 42537.8 27220.3 33224.6 26567.4 26478.2 25706.2 24938.4 24549.8
threshold=2028.7205527537005 -0.52707282776374165 2282.5494641998353 259.24147284544478 52.321163327328684 41.433648343820046 2019.7766233355644 2180.2229051678341 2017.513069265902 100.99923884925165 1265.5786987927272 102.19553047567224 58.975228879844686 -0.61186373645567615 109.85934133537248 49.787843560492966 353.05385502418886 0.26781182513105634 336.70819593654284 100.30545057044752 99.826209115750501 100.51268497269442 88.403743896876577 45.500000000000007 58.481913818663543 109.70174186015346 1577.0487403306181 100.2732770466254 98.911087830010175 99.716944609295226
decision_type=2 2 2 2 2 2 2 2 2 2 2 2 2 2 2 2 2 2 2 2 2 2 2 2 2 2 2 2 2 2
left_child=1 3 4 12 5 -2 -7 8 9 19 -5 23 21 28 15 16 -15 -6 -17 20 -3 22 -1 24 -12 -16 -24 -20 -4 -27
right_child=2 7 13 10 17 6 -8 -9 -10 -11 11 -13 -14 14 25 18 -18 -19 27 -21 -22 -23 26 -25 -26 29 -28 -29 -30 -31
leaf_value=-4.3651750169481556 0.093549965367172708 -2.6205099170958555 3.8191072787557334 -5.3650279868732804 -1.5213207006454468 4.6740100774765017 1.5924505368257182 -2.8897591451803848 1.8150137913227082 0.18200592380017044 -2.4369873745624839 -5.2726170575618747 -3.2342783071597418 3.1137640168721026 5.7660613989830019 0.83078136547752046 5.5640030767466575 1.0142375331175957 4.5708062553405764 -3.3834234484604431 -0.082003912130991619 -3.5953383207321168 -5.5324319032522347 -1.1334848489761353 -4.6849624720486736 5.2216292494819285 -7.835501154263814 2.0357408100366592 1.6509991281562382 2.8570873758067257
leaf_weight=35 33 27 21 22 24 25 39 36 20 32 65 20 30 55 40 23 37 38 20 28 30 21 26 25 22 21 24 20 36 23
leaf_count=35 33 27 21 22 24 25 39 36 20 32 65 20 30 55 40 23 37 38 20 28 30 21 26 25 22 21 24 20 36 23
internal_value=-0.154982 -3.02453 2.76502 -4.03621 1.15769 1.87673 2.79618 -1.32865 -0.918433 -1.38569 -3.33307 -2.99442 -4.8324 3.62842 3.90951 3.4088 4.09919 0.0327311 2.40062 -1.97588 -1.28445 -5.2847 -5.70208 -2.58759 -3.00544 4.83345 -6.63791 3.30327 2.44978 3.98562
internal_weight=918 463 455 290 159 97 64 173 137 117 154 132 136 296 239 155 92 62 63 85 57 106 85 112 87 84 50 40 57 44
internal_count=918 463 455 290 159 97 64 173 137 117 154 132 136 296 239 155 92 62 63 85 57 106 85 112 87 84 50 40 57 44
is_linear=0
shrinkage=0.05


Tree=35
num_leaves=31
num_cat=0
split_feature=7 10 23 42 16 38 36 22 39 39 39 1 32 38 39 33 14 3 32 23 14 33 42 32 37 44 42 39 12 23
split_gain=2.7484e+06 211785 165998 81497.9 75815.9 57000.4 54457 44558.1 46212.1 55604.5 41675.9 50841 48631.5 41515.8 37862 37577.5 35264.3 32167.6 36743.8 31945.9 29624.1 47307.6 40863.7 29442.2 35500 28433.9 28107.9 27780.9 26700.2 25454
threshold=174.50000000000003 -0.6830127018922193 2365.4757515805277 101.74899828269872 1879.9376577583773 55.495585999140815 294.15183809424281 2182.8569341909347 57.832316998735905 41.668284425577603 45.885401241609095 48.946601022408977 262.93370113216002 53.840398207321734 52.123336918531955 248.96188543225313 2465.9250960154163 1.0000000180025095e-35 261.48480131034677 2559.1837425139361 2380.1336502544932 361.8168306019125 99.699269034116284 269.99228812335474 51.849430058054992 99.486774050626664 99.134996632886455 50.783600463443996 -0.17552986495351994 2180.3121021123288
decision_type=2 2 2 2 2 2 2 2 2 2 2 2 2 2 2 2 2 2 2 2 2 2 2 2 2 2 2 2 2 2
left_child=2 10 5 7 17 25 28 -4 9 16 11 -2 13 14 -12 -14 -9 -3 -19 -10 -11 22 -22 -20 -25 -1 -13 -5 -6 -8
right_child=1 4 3 27 6 -7 29 8 19 20 12 26 15 -15 -16 -17 -18 18 23 -21 21 -23 -24 24 -26 -27 -28 -29 -30 -31
leaf_value=1.2858482989397917 -6.2789018712937832 -0.55570532253810334 1.6870588114239133 5.9110492375161918 -0.6599410173296929 3.0546376903851828 -3.0876166218519212 5.5471901614751138 3.4270067930221559 3.5256428143659306 -3.2535061740875246 -2.2744865992479029 -0.42747206628322609 -2.6055231483777366 -6.0438702537167464 -3.1305699123276605 2.798255177140236 -1.3417958469004245 -4.6717306814193726 5.9567133069038398 0.26050712361931805 3.9932832907546647 2.5825187471177844 -3.4599240313876756 -0.96127595277059652 -0.74606195092201233 -4.7109981923267759 3.5868645286560064 1.7910866397619249 -0.69447231188416492
leaf_weight=33 32 21 53 36 20 24 20 28 26 43 20 20 20 30 31 36 20 37 25 24 40 22 36 44 21 36 29 20 25 25
leaf_count=33 32 21 53 36 20 24 20 28 26 43 20 20 20 30 31 36 20 37 25 24 40 22 36 44 21 36 29 20 25 25
internal_value=0.0179295 -2.70383 2.83227 3.33375 -1.67256 0.955764 -0.528175 2.99866 3.28952 2.93192 -3.82972 -4.72881 -3.29814 -4.08143 -4.94961 -2.16518 4.4018 -2.36847 -2.66821 4.64127 2.43153 1.95146 1.36041 -3.21352 -2.65267 0.225721 -3.7165 5.08098 0.701741 -1.75809
internal_weight=897 456 441 348 238 93 90 292 239 189 218 81 137 81 51 56 48 148 127 50 141 98 76 90 65 69 49 56 45 45
internal_count=897 456 441 348 238 93 90 292 239 189 218 81 137 81 51 56 48 148 127 50 141 98 76 90 65 69 49 56 45 45
is_linear=0
shrinkage=0.05


Tree=36
num_leaves=31
num_cat=0
split_feature=12 23 10 42 34 19 37 41 16 17 17 25 42 36 38 14 22 34 42 25 44 44 32 31 32 21 23 0 29 29
split_gain=2.46973e+06 210993 154967 73551.9 58390.6 57269 51564.6 51386.7 48400.4 43302 42869.8 42683.7 49157.2 40944.6 38803.2 38171.8 56841.2 44479.2 35226.4 41420.7 34033 40867.1 28835.4 51353.9 26837 46258.8 25983.8 25327.1 25199.4 24085.4
threshold=1.0000000180025095e-35 2365.4757515805277 -0.6830127018922193 101.74899828269872 252.67374216413333 2187.3449029314702 51.573672001311031 49.258429440315275 1879.9376577583773 1862.9128727917766 1782.5615064720125 96.697993586017262 98.860236157721431 294.15183809424281 48.041644987175196 2480.7890280104002 2182.8569341909347 352.51547786989278 99.004465654872959 104.06279451576935 100.29821871497758 98.313243332690618 269.89555761270066 1746.3470607278689 259.69288656885607 100.68221411874454 2549.7012415072809 344.65245103550075 93.142751694493427 106.70586940956262
decision_type=2 2 2 2 2 2 2 2 2 2 2 2 2 2 2 2 2 2 2 2 2 2 2 2 2 2 2 2 2 2
left_child=2 5 4 11 22 6 -2 -5 9 10 24 12 -3 -10 -7 16 -13 26 19 -6 21 -20 23 -1 -4 -26 -18 -17 -14 -30
right_child=1 3 8 7 18 14 -8 -9 13 -11 -12 15 28 -15 -16 27 17 -19 20 -21 -22 -23 -24 -25 25 -27 -28 -29 29 -31
leaf_value=-3.3840746924990697 0.18750798260724102 2.1253153926134112 -1.1484537479933352 6.575857865810395 -0.40153580016416052 -1.955284623305003 3.1544893197715282 3.5152412950992584 0.32194953262805942 -4.2491888460905658 0.010669579710035276 1.2125513108877035 5.6259056766827911 -2.2027595435197536 0.68699280998923573 2.4441851949691777 3.7204703875950411 5.3959745365640401 -2.5172826063632967 -3.4022854208946232 -2.4216434381510084 -5.3095945108877984 -3.127082316875458 -6.5116437802995968 -4.0980784157643448 -1.4796552790749458 1.65603573874191 0.077502209635881281 2.8434276882339926 4.9122163732846582
leaf_weight=21 27 40 32 24 23 24 32 32 42 23 24 39 24 26 33 20 35 23 20 23 38 38 20 35 37 31 27 26 34 24
leaf_count=21 27 40 32 24 23 24 32 32 42 23 24 39 24 26 33 20 35 23 20 23 38 38 20 35 37 31 27 26 34 24
internal_value=0.017033 2.55148 -2.69887 3.16706 -3.63824 0.704744 1.79672 4.82693 -1.74639 -2.25663 -1.88704 2.84873 3.56233 -0.64338 -0.425545 2.33662 2.79295 3.51808 -3.03958 -1.90191 -3.58472 -4.34673 -4.75677 -5.33881 -2.34249 -2.90439 2.82144 1.10649 4.26331 3.69948
internal_weight=897 464 433 348 218 116 59 56 215 147 124 292 122 68 57 170 124 85 142 46 96 58 76 56 100 68 62 46 82 58
internal_count=897 464 433 348 218 116 59 56 215 147 124 292 122 68 57 170 124 85 142 46 96 58 76 56 100 68 62 46 82 58
is_linear=0
shrinkage=0.05


Tree=37
num_leaves=31
num_cat=0
split_feature=7 22 12 20 42 41 37 4 2 39 39 25 46 41 39 25 8 39 39 2 34 39 22 32 42 42 4 44 27 24
